tree
version=v3
num_class=1
num_tree_per_iteration=1
label_index=0
max_feature_idx=10
objective=binary sigmoid:1
feature_names=age fnlwgt hours_per_week total_gain workclass education marital_status occupation relationship race sex
feature_infos=[-1.581850945272288:3.7687283055241063] [-1.6756468343812916:12.224249877023269] [-3.1828860576811184:4.7329334085811006] [-0.71669303190728417:13.245507629903031] [0:5] [0:8] [0:3] [0:14] [0:5] [0:2] [0:1]
tree_sizes=3236 3280 3295 3291 3305 3292 3297 3310 3302 3318 3305 3294 3309 3334 3314 3319 3317 3314 3317 3318 3315 3343 3319 3324 3334 3313 3346 3325 3320 3329 3321 3303 3303 3338 3328 3331 3312 3308 3314 3327 3322 3326 3313 3317 3314 3302 3303 3292 3288 3306 3324 3330 3321 3275 3296 3296 3291 3313 3319 3300 3342 3307 3282 3268 3312 3284 3305 3292 3271 3294 3301 3305 3278 3297 3272 3288 3266 3286 3311 3274 3305 3284 3288 3275 3279 3263 3298 3293 3299 3267 3288 3290 3318 3296 3288 3292 3284 3269 3290 3283 3292 3304 3300 3301 3310 3288 3253 3297 3286 3320 3288 3293 3299 3281 3271 3299 3277 3248 3277 3282 3291 3279 3253 3283 3259 3298 3288 3272 3285 3321 3286 3297 3270 3325 3282 3268

Tree=0
num_leaves=30
num_cat=0
split_feature=6 2 7 7 7 2 7 7 7 7 7 7 7 2 2 2 8 6 8 8 8 2 7 4 4 4 8 7 7
split_gain=5829.49 559.019 317.1 345.119 347.417 272.075 256.167 108.577 102.781 233.642 392.092 162.388 59.9657 48.6913 44.3361 43.0835 36.5483 38.4052 34.7193 33.5118 32.0744 31.6919 29.259 28.8737 23.162 39.4052 22.7566 21.7453 34.8819
threshold=1.5000000000000002 0.088447497253777999 9.5000000000000018 4.5000000000000009 3.5000000000000004 0.24999483329994573 10.500000000000002 13.500000000000002 3.5000000000000004 4.5000000000000009 9.5000000000000018 10.500000000000002 13.500000000000002 -0.63851551495397663 -0.71928918297706057 -0.23464717483855746 1.5000000000000002 2.5000000000000004 4.5000000000000009 4.5000000000000009 1.5000000000000002 -0.47696817890780902 9.5000000000000018 4.5000000000000009 3.5000000000000004 4.5000000000000009 4.5000000000000009 3.5000000000000004 4.5000000000000009
decision_type=2 2 2 2 2 2 2 2 2 2 2 2 2 2 2 2 2 2 2 2 2 2 2 2 2 2 2 2 2
left_child=1 2 3 4 13 20 14 15 -3 24 -11 -12 -13 26 19 -8 27 -18 23 -4 22 -6 -2 -15 -10 -26 -1 -7 -29
right_child=5 8 6 -5 21 16 7 -9 9 10 11 12 -14 18 -16 -17 17 -19 -20 -21 -22 -23 -24 -25 25 -27 -28 28 -30
leaf_value=-1.2094526228357094 -1.2581026242255953 -1.0428067509831747 -1.1126334990354525 -1.1905764290189984 -1.0641595345617216 -1.2130014892842624 -1.1096708245634217 -1.1552134330079451 -0.8550734758624301 -1.1435223045853253 -0.86733654360546475 -0.96473425578579397 -1.0718943218373129 -1.1162634531245501 -0.89440115223172378 -1.002282361253338 -1.1747439127505781 -1.2608276977231749 -1.0194278350695301 -0.88034264550376085 -1.2704294310872524 -0.93325679199210088 -1.2208719891296191 -1.0371744495007114 -1.0164168537901017 -0.82035830821312139 -1.0950066028631869 -1.0936663156500883 -1.1727620400078924
leaf_weight=60.875137388706207 682.24027848243713 180.79732996225357 17.915205597877502 321.74246788024902 20.840137124061584 77.510685443878174 47.530137300491333 90.490069091320038 174.5818504691124 132.53595978021622 160.87123394012451 180.43171352148056 73.488904595375061 320.46281033754349 158.67753529548645 174.5818504691124 103.4694527387619 103.83506917953491 54.476849675178528 9.5060274600982684 1314.7567210197449 164.34459012746811 305.65534448623657 53.928425014019012 25.410342633724213 17.183972716331482 24.313493311405182 73.488904595375061 231.06959056854248
leaf_count=333 3732 989 98 1760 114 424 260 495 955 725 880 987 402 1753 868 955 566 568 298 52 7192 899 1672 295 139 94 133 402 1264
internal_value=-1.14837 -1.03538 -1.07294 -1.10487 -1.06543 -1.24468 -1.00758 -1.06288 -0.975001 -0.958966 -0.993789 -0.945946 -0.995748 -1.10773 -0.914692 -1.02526 -1.18405 -1.21786 -1.09402 -1.03211 -1.2602 -0.947988 -1.24658 -1.10487 -0.871204 -0.93732 -1.17679 -1.16571 -1.15368
internal_weight=0 2464.99 1519.68 1020.98 699.241 2892.03 498.701 312.602 945.301 764.504 547.328 414.792 253.921 514.057 186.099 222.112 589.374 207.305 428.868 27.4212 2302.65 185.185 987.896 374.391 217.176 42.5943 85.1886 382.069 304.558
internal_count=29304 13484 8313 5585 3825 15820 2728 1710 5171 4182 2994 2269 1389 2812 1018 1215 3224 1134 2346 150 12596 1013 5404 2048 1188 233 466 2090 1666
is_linear=0
shrinkage=1


Tree=1
num_leaves=30
num_cat=0
split_feature=8 8 5 0 2 2 5 5 5 5 0 0 5 5 0 0 5 5 5 5 5 5 5 7 0 7 5 5 7
split_gain=3768.43 991.386 706.093 486.771 284.409 259.342 205.065 264.923 196.064 155.953 111.507 81.7565 81.441 79.7301 68.119 64.3381 60.8806 55.3113 57.766 52.7532 52.5124 127.02 48.3928 44.4211 35.1146 32.6206 31.2617 47.204 28.8318
threshold=1.0000000180025095e-35 4.5000000000000009 7.5000000000000009 -0.22588223102936614 -0.47696817890780902 0.1692211652768619 2.5000000000000004 3.5000000000000004 6.5000000000000009 2.5000000000000004 -0.66565586808112454 -0.66565586808112454 7.5000000000000009 1.0000000180025095e-35 -0.29917783720465918 -0.88554268660700364 1.0000000180025095e-35 3.5000000000000004 6.5000000000000009 2.5000000000000004 3.5000000000000004 6.5000000000000009 1.5000000000000002 9.5000000000000018 -0.81224708043171068 11.500000000000002 2.5000000000000004 3.5000000000000004 4.5000000000000009
decision_type=2 2 2 2 2 2 2 2 2 2 2 2 2 2 2 2 2 2 2 2 2 2 2 2 2 2 2 2 2
left_child=2 5 3 9 -5 14 16 -8 -9 13 -7 -11 15 -1 -2 -3 -6 -13 -19 22 -21 -22 -12 -16 -15 -25 -17 28 -28
right_child=1 12 -4 4 6 10 7 8 -10 11 19 17 -14 24 23 26 -18 18 -20 20 21 -23 -24 25 -26 -27 27 -29 -30
leaf_value=0.010687624111628432 -0.12139454634462309 -0.022900568045140193 -0.065133966871022478 -0.0069103457396788 0.15015566620537868 -0.09472100898387352 0.077579637441814064 0.26667205411734957 0.13238054210088718 -0.053368367532274766 0.032231745758692976 -0.0043177185296844689 -0.074877357937063072 0.036549093674772826 -0.099385057455010292 0.19348212720236732 0.23500424131723127 0.20619659597952775 0.045779327403537559 -0.081368635247012044 0.14312587193966206 -0.049767099981053421 0.26557569430146355 -0.013764637510228354 0.18289021056822938 -0.086346776274387568 0.1190414778628926 0.1737278756584717 -0.0029775437395161389
leaf_weight=50.597856715321541 1301.0863881856203 26.528414949774742 241.4124697893858 112.30756512284279 112.7404520213604 194.82422815263271 456.87848471105099 179.58817985653877 275.49547900259495 156.75809213519096 122.95647250115871 131.60846182703972 22.316446363925934 19.473011612892151 639.69052857160568 76.942871943116188 338.37443819642067 31.488912060856819 78.180040627717972 109.48782336711884 48.822143450379372 113.50513948500156 9.580153211951254 125.72994983196259 103.78951974213123 122.00660869479179 40.737951427698135 71.309844404459 36.910576924681664
leaf_count=263 7558 137 1305 617 580 1097 2407 879 1419 828 679 696 120 98 3721 388 1681 155 405 610 269 631 53 721 517 701 209 361 199
internal_value=0 -0.0730026 0.0966167 0.11569 0.146049 -0.0908647 0.158651 0.131372 0.185376 0.037371 -0.0325724 0.00285845 0.108233 0.116384 -0.106824 0.124421 0.213799 0.039389 0.0918394 -0.00262798 -0.0278498 0.00824809 0.0490986 -0.0854619 0.159771 -0.0495103 0.141722 0.114986 0.0610392
internal_weight=0 3062.44 2288.69 2047.28 1475.38 2787.69 1363.08 911.962 455.084 571.896 599.176 398.036 274.746 173.86 2188.51 252.43 451.115 241.277 109.669 404.352 271.815 162.327 132.537 887.427 123.263 247.737 225.901 148.958 77.6485
internal_count=29304 17454 11850 10545 7583 16040 6966 4705 2298 2962 3339 2084 1414 878 12701 1294 2261 1256 560 2242 1510 900 732 5143 615 1422 1157 769 408
is_linear=0
shrinkage=0.1


Tree=2
num_leaves=30
num_cat=0
split_feature=6 5 0 2 5 5 5 5 0 2 0 0 5 5 5 5 5 5 5 5 0 1 4 5 0 5 5 2 0
split_gain=3823.02 615.051 404.767 235.029 200.336 287.96 173.922 122.748 96.8883 91.7539 64.6269 49.5081 47.5748 46.8079 39.3039 43.0163 105.011 38.9568 37.405 35.5172 34.1349 26.8087 25.1746 21.8317 21.6852 19.4299 28.0547 17.5714 16.9653
threshold=1.5000000000000002 7.5000000000000009 -0.37247344337995225 0.24999483329994573 2.5000000000000004 3.5000000000000004 6.5000000000000009 2.5000000000000004 -0.66565586808112454 -0.47696817890780902 -0.29917783720465918 -0.66565586808112454 1.0000000180025095e-35 1.0000000180025095e-35 2.5000000000000004 3.5000000000000004 6.5000000000000009 2.5000000000000004 1.5000000000000002 1.0000000180025095e-35 -0.95883829278229682 -0.33445812767327038 3.5000000000000004 1.5000000000000002 0.43377822454827158 3.5000000000000004 6.5000000000000009 -0.71928918297706057 -1.0321338989575897
decision_type=2 2 2 2 2 2 2 2 2 2 2 2 2 2 2 2 2 2 2 2 2 2 2 2 2 2 2 2 2
left_child=1 2 7 10 13 9 -7 12 -5 -6 -2 28 -1 -4 19 -16 -17 18 -12 -10 -14 -8 -15 -21 -11 -13 -27 -22 -9
right_child=3 -3 4 8 5 6 21 11 14 24 17 25 20 22 15 16 -18 -19 -20 23 27 -23 -24 -25 -26 26 -28 -29 -30
leaf_value=0.013309396487154294 -0.11798759637978243 -0.062461729821402745 0.11883386623204195 -0.091744254355527188 -0.063587159354262748 0.20986310363737695 0.072024814742178006 -0.095974433985623553 -0.051428507005357962 0.040502709548462273 -0.050406325185427953 -0.0021599501999410415 -0.029921069688998256 0.19681321325545847 -0.076002499309046262 0.12509422011955615 -0.048948091592380977 -0.09318494830249946 0.17717599780697091 0.054796664295826428 -0.016541500562182766 0.12519459620273218 0.14577457946550071 0.20607960542059481 0.079740105958499952 0.16082571232171461 0.026979082438943452 0.1522854009402185 -0.028354842666010335
leaf_weight=55.944503352046013 1198.0021371841431 264.36758908629417 156.2533425539732 176.94461263716221 64.522455900907516 248.87729389965534 163.73457467556 50.139431163668633 31.097443804144859 254.35473318397999 175.78049001097679 96.072112902998924 12.839885249733923 333.44140860438347 101.34174303710461 51.281798020005226 107.00627653300762 657.78289356827736 7.5313396751880637 89.788950309157372 6.5520204007625571 225.33934508264065 136.0827891677618 10.672984689474104 315.64411909878254 21.958557635545731 54.594949752092361 104.33337809145451 142.71087384223938
leaf_count=287 7474 1480 759 1051 354 1122 804 275 170 1301 1060 508 64 1534 590 263 611 4018 44 487 33 1105 625 52 1604 100 276 487 766
internal_value=0 0.0824298 0.0981066 -0.0872225 0.119918 0.0971362 0.144579 0.0221569 -0.0303419 0.0494369 -0.103071 -0.0111136 0.0898341 0.166243 -0.00256806 -0.0251316 0.00743773 -0.0818238 -0.0410561 0.0419607 0.124436 0.102819 0.182021 0.0708688 0.0622309 0.0277879 0.0653716 0.14231 -0.0459354
internal_weight=0 2707.76 2443.4 2607.23 1898.25 1272.47 637.951 545.146 568.134 634.521 2039.1 365.476 179.67 625.778 391.189 259.63 158.288 841.095 183.312 131.559 123.725 389.074 469.524 100.462 569.999 172.626 76.5535 110.885 192.85
internal_count=29304 13484 12004 15820 9208 6290 3031 2796 3224 3259 12596 1925 871 2918 2173 1464 874 5122 1104 709 584 1909 2159 539 2905 884 376 520 1041
is_linear=0
shrinkage=0.1


Tree=3
num_leaves=30
num_cat=0
split_feature=6 3 3 3 0 3 2 3 2 2 3 0 0 4 4 3 3 8 0 4 3 3 3 3 3 2 3 0 10
split_gain=3147.32 1285.46 1257.7 552.198 208.277 167.061 140.712 127.546 119.439 75.757 64.2061 59.2669 51.9024 41.0798 70.7736 34.069 62.5 31.5223 31.4408 31.007 26.1476 38.7688 25.5387 55.7895 24.5353 22.7747 19.3391 16.6257 28.409
threshold=1.5000000000000002 0.53997861502916733 0.85138700025616654 -0.36675162199913525 -0.37247344337995225 -0.4502398421416261 -0.47696817890780902 -0.39859488545091865 0.24999483329994573 0.088447497253777999 -0.42863191337077317 -1.0321338989575897 -0.81224708043171068 3.5000000000000004 4.5000000000000009 0.2835600671075586 0.2654977117882697 4.5000000000000009 -0.37247344337995225 4.5000000000000009 0.49074197238103157 0.57744127791361832 0.43387900193141837 0.4631132585037489 0.021589017365575901 0.088447497253777999 -0.33383799675065323 1.0000000180025095e-35 1.0000000180025095e-35
decision_type=2 2 2 2 2 2 2 2 2 2 2 2 2 2 2 2 2 2 2 2 2 2 2 2 2 2 2 2 2
left_child=1 3 5 7 11 -2 17 10 18 15 -1 -5 -10 -11 -15 16 19 -6 -7 24 -20 -22 -17 -24 26 -13 -8 -14 -29
right_child=2 -3 -4 4 6 8 9 -9 12 13 -12 25 27 14 -16 22 -18 -19 20 -21 21 -23 23 -25 -26 -27 -28 28 -30
leaf_value=0.18838294217572599 0.34773166147691914 0.29245748113758102 0.4224015130114972 -0.098220142409709554 -0.052860019500920001 -0.11779324619056536 -0.13951295791514026 0.28795329126760644 -0.10884002995350986 0.10449086577249207 -0.091390345537073536 -0.018117112112487503 -0.056007331615402695 0.0037562669546627042 0.1271074425948335 -0.14154168534817446 0.32750303047125756 0.045835833612504727 -0.093534037813008508 0.084608453020196261 0.34380504262772932 -0.10231468138034794 0.26713269903597275 -0.14695923579217077 -0.13589111563286466 0.026415494617793397 0.041515343550378017 -0.054658623191001655 0.019718554067320884
leaf_weight=18.721769988536835 8.5629615932703 241.42491844296455 48.254395514726639 72.54863341152668 134.18130055069923 1067.9704677909613 5.9503309130668631 115.18043734133244 125.04685609042645 510.93644042313099 14.599524036049841 305.34908078610897 194.61943891644478 122.06586590409279 75.150989562273026 16.595579877495769 8.0267398953437787 42.645912572741508 813.24674026668072 178.30964562296867 3.4055913388729087 4.551180973649025 6.0735706835985166 7.0073285400867462 8.016776889562605 184.06883181631565 715.12192238867283 96.934948772192001 109.21368964016438
leaf_count=85 49 1089 277 413 733 7167 30 520 786 2353 74 1599 1124 581 331 82 38 212 5218 831 21 29 29 33 42 913 3496 538 611
internal_value=0 0.0719485 -0.0831195 0.0509939 0.0393777 -0.0931848 0.0557291 0.238106 -0.0947482 0.0647976 0.065802 -0.0138718 -0.0525946 0.0895272 0.0507602 0.046268 0.0496865 -0.0290573 -0.106481 0.0472289 -0.091769 0.0886298 -0.0591818 0.0453071 0.0380872 -0.00136851 0.0400215 -0.035045 -0.015255
internal_weight=0 2781.98 2471.81 2540.55 2392.05 2423.55 1830.08 148.502 2414.99 1653.26 33.3213 561.967 525.815 708.153 197.217 945.102 915.425 176.827 1889.17 907.399 821.204 7.95677 29.6765 13.0809 729.089 489.418 721.072 400.768 206.149
internal_count=29304 13484 15820 12395 11716 15543 8791 679 15494 7846 159 2925 3059 3265 912 4581 4437 945 12435 4399 5268 50 144 62 3568 2512 3526 2273 1149
is_linear=0
shrinkage=0.1


Tree=4
num_leaves=30
num_cat=0
split_feature=3 8 8 3 5 0 3 2 2 3 5 5 5 5 3 0 3 3 5 3 5 5 5 0 3 3 8 3 0
split_gain=2136.85 1696.49 522.383 363.87 289.453 150.553 135.132 120.989 116.434 75.2675 74.5051 81.9258 68.5833 66.4056 49.7428 47.4847 46.3641 40.6579 39.5756 37.1434 34.3201 33.3732 29.2911 29.2218 24.6555 56.3875 30.4013 23.7418 23.2724
threshold=0.53997861502916733 1.0000000180025095e-35 4.5000000000000009 -0.36675162199913525 7.5000000000000009 -0.22588223102936614 -0.43070573935187667 0.33076850132302965 -0.47696817890780902 -0.39859488545091865 2.5000000000000004 3.5000000000000004 6.5000000000000009 2.5000000000000004 -0.42401597812251041 -0.81224708043171068 0.49074197238103157 -0.36675162199913525 3.5000000000000004 0.49074197238103157 7.5000000000000009 1.0000000180025095e-35 2.5000000000000004 -0.29917783720465918 0.81251948751354852 0.57744127791361832 1.0000000180025095e-35 0.2835600671075586 -1.0321338989575897
decision_type=2 2 2 2 2 2 2 2 2 2 2 2 2 2 2 2 2 2 2 2 2 2 2 2 2 2 2 2 2
left_child=1 3 6 9 5 13 -3 16 -7 14 27 -12 -13 21 -1 -9 23 -4 -15 22 28 -5 -17 -8 25 -2 -27 -10 -19
right_child=24 2 17 4 -6 8 7 15 10 -11 11 12 -14 18 -16 19 -18 20 -20 -21 -22 -23 -24 -25 -26 26 -28 -29 -30
leaf_value=0.14531104111796786 0.27200917819339687 0.18705090093912924 0.21059947432540521 -0.015965852486292322 -0.074177225234536237 -0.037860853350585311 -0.1145377167134021 -0.10341329846923951 0.11228347678864281 0.23933892376641783 0.026858137134002171 0.14406189016599533 0.058760530009449301 -0.049398811668848297 -0.13537757737828779 0.0054276384720097432 0.19722229994414386 -0.073467187503260659 0.016476211261070444 0.2933412109177892 -0.07591449495523582 0.083831274688556834 -0.053223488874105142 -0.088625485252108963 0.25563250906458379 0.19997961494765604 -0.11201350399829009 -0.035892708017289991 0.066610675207161629
leaf_weight=20.926544219255451 19.661539629101753 17.635892122983932 16.419582828879356 46.893098264932632 218.36115361750126 102.12660409510136 1047.213426426053 115.50750926136971 398.17830397188663 110.32284194231033 448.97613944113255 144.6731922775507 270.46491092443466 211.48631185293198 9.0415215045213682 129.09630993008614 5.1323461681604376 12.531755194067953 160.34095038473606 3.5144610106945029 20.472715646028519 117.40427881479263 250.13223218917847 744.69386345148087 293.45766453444958 5.0088533014059058 8.2962755113840085 11.115106970071791 221.41318805515766
leaf_count=93 86 97 70 239 1248 563 7558 774 1712 464 2166 600 1234 1146 48 709 28 72 804 19 117 523 1480 5033 1259 22 54 50 1036
internal_value=0 -0.0178982 -0.0733148 0.0451694 0.0348951 0.047354 -0.0887013 -0.0908201 0.0648741 0.201163 0.0731134 0.0564662 0.0884876 0.00240261 0.0606258 -0.0472178 -0.102909 0.058085 -0.0209919 -0.0302586 0.0482421 0.0553476 -0.0332576 -0.103769 0.246421 0.164423 0.00543953 0.108259 0.0591071
internal_weight=0 4854.07 2583.76 2270.31 2130.02 1911.66 2312.93 2295.29 1375.53 140.291 1273.41 864.114 415.138 536.125 29.9681 498.251 1797.04 270.837 371.827 382.743 254.418 164.297 379.229 1791.91 326.424 32.9667 13.3051 409.293 233.945
internal_count=29304 27883 16993 10890 10285 9037 15698 15601 6325 605 5762 4000 1834 2712 141 2982 12619 1295 1950 2208 1225 762 2189 12591 1421 162 76 1762 1108
is_linear=0
shrinkage=0.1


Tree=5
num_leaves=30
num_cat=0
split_feature=3 8 8 3 5 2 5 5 5 3 3 3 2 5 3 3 3 3 5 2 3 1 5 5 5 3 3 5 5
split_gain=1669.6 1432.93 454.35 283.497 236.458 128.304 118.219 121.813 97.1932 61.5588 56.756 51.2689 44.2828 43.4034 40.1731 38.3717 31.332 28.6427 28.5456 27.9105 29.5688 26.7648 23.4528 18.9395 18.4033 17.7979 42.7911 16.84 20.2868
threshold=0.53997861502916733 1.0000000180025095e-35 4.5000000000000009 -0.36675162199913525 7.5000000000000009 0.33076850132302965 2.5000000000000004 3.5000000000000004 6.5000000000000009 -0.43070573935187667 -0.39859488545091865 -0.4502398421416261 -0.073099838792389737 1.0000000180025095e-35 -0.42401597812251041 0.49074197238103157 -0.36675162199913525 0.49074197238103157 2.5000000000000004 -0.39619451088472518 0.2835600671075586 -0.35350839292612918 2.5000000000000004 1.5000000000000002 7.5000000000000009 0.81251948751354852 0.73010162916775634 2.5000000000000004 1.5000000000000002
decision_type=2 2 2 2 2 2 2 2 2 2 2 2 2 2 2 2 2 2 2 2 2 2 2 2 2 2 2 2 2
left_child=1 3 5 10 6 9 13 12 -9 -3 14 -7 -8 -5 -1 27 -4 22 -18 -15 -21 -10 23 -13 -20 26 -2 28 -11
right_child=25 2 16 4 -6 11 7 8 21 15 -12 17 -14 19 -16 -17 18 -19 24 20 -22 -23 -24 -25 -26 -27 -28 -29 -30
leaf_value=0.12622978652734179 0.20390931021794417 0.14513989518673909 0.18294010303053043 0.034942432369289088 -0.069732478083009725 0.25650092269368435 -0.078821337096789235 0.11638127250744333 -0.0004989314288430471 -0.084504388065127889 0.20850741849163557 -0.023166481649464419 0.005065567730458115 0.010605903003010272 -0.13097535832529192 0.16123906328932802 0.091018059018432879 0.21818228947895948 0.031324042912553661 0.10578425265082157 -0.091447136517906591 0.051017852629795947 -0.06144629807842187 0.12423368553363451 -0.071437476782251694 0.22066812169043187 -0.06815268905698646 -0.10562210494410867 0.078784468359318058
leaf_weight=21.638241633772854 26.295092910528183 10.338425576686857 16.976701557636261 167.56608335673809 209.52136889100075 5.7583926618099204 69.90158611536026 193.3542751967907 166.01040975749493 337.13104811310768 113.74783942103386 151.48573802411556 630.81593196094036 36.323599278926849 8.4417281001806241 5.6197713911533347 82.961354225873947 4.1427336186170569 155.62726137042046 402.6235875338316 7.7474520057439795 256.92403681576252 322.34052750468254 9.2493809014558774 19.625174567103386 305.19732823967934 7.4104450494050971 1326.5490583330393 7.7841997742652884
leaf_count=93 116 56 70 775 1248 25 401 810 788 2491 464 885 3157 179 48 28 367 20 741 1685 34 1208 2049 44 117 1259 46 10052 48
internal_value=0 -0.0167017 -0.0697342 0.0402996 0.031169 -0.0850157 0.0421157 0.0252189 0.0576478 -0.0981272 0.176204 -0.0401358 -0.00330275 0.0783432 0.054047 -0.0996268 0.0513448 -0.0436418 0.0426929 0.0946239 0.102061 0.0307965 -0.0458871 -0.0146845 0.0198166 0.213052 0.144094 -0.100504 -0.0808192
internal_weight=0 4740.21 2455.59 2284.62 2140.79 2180.4 1931.27 1317.01 616.289 1687.42 143.828 492.977 700.718 614.261 30.08 1677.08 275.19 487.218 258.214 446.695 410.371 422.934 483.076 160.735 175.252 338.903 33.7055 1671.46 344.915
internal_count=29304 27883 16993 10890 10285 15698 9037 6364 2806 12675 605 3023 3558 2673 141 12619 1295 2998 1225 1898 1719 1996 2978 929 858 1421 162 12591 2539
is_linear=0
shrinkage=0.1


Tree=6
num_leaves=30
num_cat=0
split_feature=6 3 3 3 5 0 0 5 5 3 5 7 3 3 7 7 5 5 3 1 0 7 0 0 0 0 7 5 4
split_gain=1826.84 617.62 569.572 255.805 223.015 132.61 99.7927 83.4063 93.981 72.0974 67.0224 59.9422 56.5094 35.414 31.5505 67.202 25.9024 23.6775 26.3233 23.4814 20.0676 18.767 18.1322 22.2917 16.4828 16.2769 16.0421 13.154 15.5107
threshold=1.5000000000000002 0.85138700025616654 0.53997861502916733 -0.36675162199913525 7.5000000000000009 -0.66565586808112454 -0.7389514742564175 2.5000000000000004 3.5000000000000004 -0.4502398421416261 6.5000000000000009 9.5000000000000018 -0.39859488545091865 -0.42863191337077317 4.5000000000000009 3.5000000000000004 2.5000000000000004 1.0000000180025095e-35 0.2835600671075586 -0.31749414023056111 0.21389140602239234 11.500000000000002 1.9729859542294264 1.0000000180025095e-35 -0.95883829278229682 2.4127595912811848 3.5000000000000004 1.5000000000000002 3.5000000000000004
decision_type=2 2 2 2 2 2 2 2 2 2 2 2 2 2 2 2 2 2 2 2 2 2 2 2 2 2 2 2 2
left_child=2 6 3 12 5 16 -2 17 22 -8 26 14 13 -1 15 -11 24 -7 25 -12 -17 -13 23 -9 -5 27 -10 28 -19
right_child=1 -3 -4 4 -6 7 9 8 10 11 19 21 -14 -15 -16 20 -18 18 -20 -21 -22 -23 -24 -25 -26 -27 -28 -29 -30
leaf_value=0.12521371203045459 -0.1096024207830561 0.22756057680366754 0.18924849655917775 -0.057783554133870686 -0.066224872365802198 0.045083838035970256 0.19140869628409754 -0.016493922117957208 0.020009904825643635 -0.090171811757770601 0.0093091722916347867 -0.013073796662183277 0.18814394491494582 -0.083723786923646057 -0.10776199383787671 -0.048120977207172733 -0.051065634364290895 0.10046388415584628 -0.08309397360613402 0.057137401986806516 0.025102022910004393 -0.056455306803051691 -0.071632637758678425 0.022763108341323144 0.045493286234682247 -0.069347642740582791 0.11540655083542165 0.14801452978358923 0.056823871429694729
leaf_weight=20.653415620326996 803.69161181896925 66.46943923830986 267.82354664802551 21.109170004725456 227.65725269913673 176.06144432723522 10.930752620100973 213.83011411130428 19.440362498164177 365.29600342363119 175.90213836729527 199.19746010750532 128.13635843992233 13.359714314341543 301.73722182959318 73.113986678421497 177.66413871943951 292.80993875861168 8.8011546581983549 246.49144192039967 76.684589505195618 199.68657049536705 28.333330348134041 447.06952325999737 57.677822723984718 6.2033774554729453 189.05206479132175 40.617466107010841 112.82734329998493
leaf_count=85 6632 277 1089 108 1417 789 47 1103 84 2791 818 1314 520 74 2317 506 1006 1215 40 1108 514 1422 154 2171 262 30 772 167 472
internal_value=0 -0.0723932 0.0503846 0.0361007 0.028023 0.0377147 -0.0822132 0.0465734 0.0322308 -0.0642679 0.060119 -0.0665667 0.157729 0.043147 -0.0820837 -0.0670416 -0.0299018 0.076282 0.0881903 0.0372198 -0.0106368 -0.0347911 0.0067034 0.0100617 0.0178226 0.0915221 0.106512 0.0937583 0.0883255
internal_weight=0 2096.81 2871.52 2603.7 2441.55 2213.89 2030.34 1957.44 1320.12 1226.65 630.886 1215.72 162.149 34.0131 816.832 515.095 256.451 637.321 461.259 422.394 149.799 398.884 689.233 660.9 78.787 452.458 208.492 446.255 405.637
internal_count=29304 15820 13484 12395 11716 10299 15543 8923 6210 8911 2782 8864 679 159 6128 3811 1376 2713 1924 1926 1020 2736 3428 3274 370 1884 856 1854 1687
is_linear=0
shrinkage=0.1


Tree=7
num_leaves=30
num_cat=0
split_feature=6 3 3 3 5 2 5 5 5 3 3 2 3 3 5 3 1 5 5 5 5 2 4 3 2 9 2 6 4
split_gain=1539.44 509.421 474.946 211.687 183.211 122.092 86.5709 93.064 71.4104 46.7042 45.2111 38.6534 33.1325 30.8127 27.8597 21.893 20.688 20.591 17.2834 17.1838 21.7736 15.3807 15.0103 14.3021 13.9848 13.2084 12.9866 12.7264 10.4674
threshold=1.5000000000000002 0.85138700025616654 0.53997861502916733 -0.36675162199913525 7.5000000000000009 0.24999483329994573 2.5000000000000004 3.5000000000000004 6.5000000000000009 -0.39859488545091865 -0.43070573935187667 -0.073099838792389737 -0.4502398421416261 -0.42401597812251041 1.0000000180025095e-35 0.2835600671075586 -0.21237783518071815 2.5000000000000004 1.0000000180025095e-35 2.5000000000000004 1.5000000000000002 -0.47696817890780902 2.5000000000000004 -0.33383799675065323 -0.71928918297706057 1.5000000000000002 -0.96161018704631218 2.5000000000000004 2.5000000000000004
decision_type=2 2 2 2 2 2 2 2 2 2 2 2 2 2 2 2 2 2 2 2 2 2 2 2 2 2 2 2 2
left_child=2 5 3 9 6 10 14 11 26 13 -2 -8 -7 -1 -5 24 -10 18 -14 20 -12 -18 -19 -13 -16 28 -9 -20 -25
right_child=1 -3 -4 4 -6 12 7 8 16 -11 19 23 17 -15 15 -17 21 22 27 -21 -22 -23 -24 25 -26 -27 -28 -29 -30
leaf_value=0.094381961736117778 0.11430898980445113 0.19954152588082691 0.17339367167995351 0.030894626340394145 -0.06217310015328642 0.19595736782047171 -0.061115340168170933 -0.00095930480475145516 0.0025081639197989626 0.17173255260437209 -0.078035405320866641 -0.13769301084709967 -0.068008217607231566 -0.12668479030520971 0.019438374265888264 -0.07486506529690018 -0.037117685650647547 -0.065471756107475229 0.052023222456526776 -0.10029859813302476 0.085986414620465967 0.050915606487039647 -0.014000797370631913 -0.05834929965738031 0.082036454120515398 0.011060143116262876 0.10014174404081928 -0.014941961373278554 0.030727118249548852
leaf_weight=25.237901479005814 10.432775363326071 68.113526374101639 263.2886715233326 204.54469966888428 218.72054198384285 6.1646283268928519 101.48886530101299 13.543643087148665 221.06106679141521 126.41808271408081 297.03579390794039 6.9560665637254706 36.998269028961658 8.4046395868062955 38.615517899394035 9.6350986659526807 21.583937451243401 227.89891932159662 45.301458992063999 1131.4843468442559 8.3200099766254407 246.54455441981554 75.4053063839674 50.766487427055836 470.90545102953911 615.79323994368315 205.26021943986416 75.976231299340725 17.823815047740936
leaf_count=106 53 277 1089 923 1417 25 585 63 1045 520 2459 36 238 53 186 45 110 1610 247 9898 49 1118 491 264 1929 3072 837 473 86
internal_value=0 -0.0691984 0.0454009 0.0324561 0.0251575 -0.078757 0.033744 0.0200452 0.0463965 0.143867 -0.0931114 -0.00348635 -0.0343422 0.0391547 0.0621528 0.0744684 0.0251565 -0.0374179 -0.00817997 -0.0946175 -0.0735663 0.0438291 -0.0526754 0.0049736 0.0772923 0.00642366 0.0938837 0.0100719 -0.035202
internal_weight=0 1983.13 2866.59 2603.3 2443.24 1915.02 2224.52 1500.82 707.993 160.061 1447.27 792.828 467.745 33.6425 723.701 519.156 489.19 461.58 158.276 1436.84 305.356 268.128 303.304 691.34 509.521 684.384 218.804 121.278 68.5903
internal_count=29304 15820 13484 12395 11716 15543 10299 7216 3173 679 12459 4043 3084 159 3083 2160 2273 3059 958 12406 2508 1228 2101 3458 2115 3422 900 720 350
is_linear=0
shrinkage=0.1


Tree=8
num_leaves=30
num_cat=0
split_feature=8 3 3 8 3 2 0 2 3 0 3 2 0 7 7 7 0 3 4 4 7 3 3 3 7 7 3 7 7
split_gain=959.103 499.249 359.592 328.565 160.581 114.842 103.5 78.6935 45.0427 43.1892 42.5644 40.7082 36.6108 36.2647 57.499 40.1483 35.9627 31.1661 30.5213 33.8798 28.7155 24.2006 24.1649 43.8539 23.8893 23.4685 23.1727 22.2999 34.0272
threshold=1.0000000180025095e-35 0.49074197238103157 0.53997861502916733 4.5000000000000009 -0.36675162199913525 0.33076850132302965 -0.22588223102936614 -0.47696817890780902 -0.33383799675065323 -0.81224708043171068 -0.43070573935187667 0.088447497253777999 -0.81224708043171068 9.5000000000000018 4.5000000000000009 3.5000000000000004 -0.29917783720465918 -0.39859488545091865 3.5000000000000004 4.5000000000000009 13.500000000000002 -0.42401597812251041 0.81251948751354852 0.51181472025353536 9.5000000000000018 9.5000000000000018 -0.4502398421416261 4.5000000000000009 3.5000000000000004
decision_type=2 2 2 2 2 2 2 2 2 2 2 2 2 2 2 2 2 2 2 2 2 2 2 2 2 2 2 2 2
left_child=2 3 4 5 17 10 12 -8 -9 -7 -2 13 -6 14 15 -10 -12 21 -13 -20 -15 -1 23 -3 27 -18 -11 28 -14
right_child=1 22 -4 -5 6 9 7 8 11 26 16 18 24 20 -16 -17 25 -19 19 -21 -22 -23 -24 -25 -26 -27 -28 -29 -30
leaf_value=0.092072406447160346 0.1007786285944859 0.29980693140420078 0.16152501580620734 0.040934515034564939 -0.060143102338008174 -0.09213931462068721 -0.042790080807996719 -0.15046880817811556 0.012070455094382624 0.17638521085185399 -0.10602064521216337 0.076315441857962754 -0.031016011240353858 0.07392500370669508 -0.040611415262647367 0.082456330808059142 -0.086117971199412793 0.1576540259306104 -0.0070503509990565401 0.083953468176149917 -0.0094572081067035522 -0.12214172835610895 0.17259562381740157 -0.025933029244845359 0.027174522623577335 -0.042140610493822936 -0.01924672557479613 -0.061716200123200685 0.058621918096440288
leaf_weight=22.29737658798695 11.555673003196715 5.5266058892011669 224.79911229014397 276.46405963599682 130.52396519482136 93.966531023383141 117.89496132731438 12.034108340740202 263.60927906632423 6.1628445237874976 779.66841842979193 457.83689665794373 121.76724675297737 221.46235530078411 143.2887981981039 117.01122249662876 414.04710189253092 109.65325729548931 108.84273388981819 65.544648438692093 50.77037113904953 6.9077092111110678 95.859860315918922 16.390319958329201 188.82429710030556 171.65322772413492 345.23761700838804 84.65941309928894 64.930951625108719
leaf_count=93 56 25 960 1287 753 776 697 59 1270 25 7558 1998 643 943 749 494 3669 464 500 273 267 48 394 98 873 1364 2202 481 285
internal_value=0 -0.0494054 0.0408394 -0.0606481 0.0289811 -0.0760595 0.0222467 0.0357585 0.0421876 -0.031919 -0.0903367 0.0438108 -0.0133977 0.0287669 0.0133822 0.0337086 -0.0919542 0.133204 0.0627552 0.027154 0.0583745 0.0414056 0.150937 0.0562061 -0.000139085 -0.0732294 -0.0158157 -0.0191453 0.000158773
internal_weight=0 2216.53 2512.66 2098.76 2287.86 1822.29 2149 1558.3 1440.4 445.367 1376.92 1428.37 590.706 796.142 523.909 380.621 1365.37 138.858 632.224 174.387 272.233 29.2051 117.777 21.9169 460.182 585.7 351.4 271.358 186.698
internal_count=29304 17454 11850 16937 10890 15650 10285 7250 6553 3003 12647 6494 3035 3723 2513 1764 12591 605 2771 773 1210 141 517 123 2282 5033 2227 1409 928
is_linear=0
shrinkage=0.1


Tree=9
num_leaves=30
num_cat=0
split_feature=3 0 10 3 2 7 7 7 7 0 3 3 0 7 7 7 7 0 0 7 7 7 2 3 3 2 0 4 0
split_gain=770.876 602.911 226.899 143.893 101.86 82.6077 84.2763 70.3143 55.789 43.4387 39.3001 34.6872 29.0568 31.4109 61.4001 26.2361 24.2056 22.9093 26.8544 22.8604 34.4895 28.941 21.9027 20.2092 33.756 18.8237 16.8596 15.203 15.5422
threshold=0.53997861502916733 -0.7389514742564175 1.0000000180025095e-35 -0.37745523996612124 0.088447497253777999 9.5000000000000018 4.5000000000000009 3.5000000000000004 13.500000000000002 -1.0321338989575897 -0.38561674866594814 -0.34373884337011534 -0.15258662485407304 4.5000000000000009 9.5000000000000018 3.5000000000000004 13.500000000000002 0.36048261837297851 1.6798035295282541 9.5000000000000018 4.5000000000000009 3.5000000000000004 -0.96161018704631218 -0.39859488545091865 -0.42401597812251041 0.088447497253777999 0.43377822454827158 3.5000000000000004 -0.079291018678779981
decision_type=2 2 2 2 2 2 2 2 2 2 2 2 2 2 2 2 2 2 2 2 2 2 2 2 2 2 2 2 2
left_child=1 9 10 23 5 6 7 17 22 -1 -3 -6 -13 15 -15 -14 -16 -5 -19 20 21 -12 -7 24 -4 -11 -10 28 -9
right_child=-2 2 3 4 11 8 -8 27 26 25 19 12 13 14 16 -17 -18 18 -20 -21 -22 -23 -24 -25 -26 -27 -28 -29 -30
leaf_value=-0.1060717494845973 0.14837453476488241 0.082661761859345789 0.10443370302417124 -0.042692542199171665 -0.13730005085315686 -0.025428070788050313 -0.064815158936803147 0.0119283942245014 -0.080535852807117322 -0.076415647671636056 -0.056092326551645089 0.015124867511111388 0.043516853260281291 -0.034256477150933252 0.068993201680641089 0.10314327732367748 -0.001957123444247825 0.019485739694090731 -0.059450180417583764 -0.018707445639414493 -0.090567548423746189 0.0050601674204978232 0.054859794766066387 0.14080094231672693 -0.11976985693643723 -0.028053611469662305 0.0053951046723179292 0.011468469186218657 0.095574199182690556
leaf_weight=501.5190764144063 319.63451310247183 25.553444124758244 32.267226755619049 226.60372307151556 11.044093139469622 37.528289295732975 287.12652491778135 29.581981748342514 47.652403585612774 250.3107491210103 249.19263589382172 306.61236648261547 132.78813786804676 99.737294971942902 257.18664538115263 166.10090205818415 59.142334558069706 188.58133076876402 55.866914860904217 256.28829152882099 181.09561339765787 112.25087359547615 359.17188943177462 104.49749153107405 8.4801577627658826 118.6211733520031 43.835912503302097 55.826233454048634 89.186172068119049
leaf_count=5014 1421 121 141 1431 57 226 1941 160 304 2133 1956 1601 641 521 1137 728 295 1034 347 1736 1543 750 1785 471 65 795 261 273 416
internal_value=0 -0.0126001 0.00629591 0.0207962 0.0150711 -0.00229809 -0.0197412 0.00030367 0.0310302 -0.0869117 -0.0394155 0.0389726 0.0408783 0.0519228 0.0341574 0.0766529 0.055728 -0.0197875 0.00144549 -0.0433206 -0.0549475 -0.0371006 0.0472645 0.117508 0.0577735 -0.060866 -0.0393627 0.0545092 0.0747403
internal_weight=0 4293.65 3423.2 2598.82 2453.57 1420.96 932.773 645.646 488.188 870.451 824.381 1032.61 1021.57 714.955 416.066 298.889 316.329 471.052 244.448 798.827 542.539 361.444 396.7 145.245 40.7474 368.932 91.4883 174.594 118.768
internal_count=29304 27883 19941 13835 13158 8178 5602 3661 2576 7942 6106 4980 4923 3322 1953 1369 1432 2812 1381 5985 4249 2706 2011 677 206 2928 565 849 576
is_linear=0
shrinkage=0.1


Tree=10
num_leaves=30
num_cat=0
split_feature=0 10 5 0 2 0 5 2 5 5 5 7 5 5 5 7 2 5 5 0 7 7 7 0 7 7 1 7 5
split_gain=629.059 205.74 166.97 80.43 68.3229 51.1016 40.955 35.4594 34.892 59.082 50.5629 21.1517 20.2457 28.3578 43.3273 19.8031 19.3028 18.7187 18.2237 17.4414 15.3958 14.8312 12.792 12.5483 12.2436 26.9886 13.5902 10.205 10.1769
threshold=-0.7389514742564175 1.0000000180025095e-35 7.5000000000000009 -0.15258662485407304 -0.47696817890780902 -1.0321338989575897 2.5000000000000004 0.088447497253777999 2.5000000000000004 3.5000000000000004 6.5000000000000009 13.500000000000002 7.5000000000000009 3.5000000000000004 6.5000000000000009 9.5000000000000018 0.088447497253777999 1.5000000000000002 2.5000000000000004 0.43377822454827158 3.5000000000000004 13.500000000000002 4.5000000000000009 1.6798035295282541 4.5000000000000009 9.5000000000000018 -0.69427024864091869 4.5000000000000009 1.0000000180025095e-35
decision_type=2 2 2 2 2 2 2 2 2 2 2 2 2 2 2 2 2 2 2 2 2 2 2 2 2 2 2 2 2
left_child=5 6 3 7 -5 -1 17 15 11 19 23 20 13 27 -15 22 -7 -2 28 -10 -6 -17 -3 -11 -22 -26 -27 -8 -9
right_child=1 2 -4 4 8 16 12 18 9 10 -12 -13 -14 14 -16 21 -18 -19 -20 -21 24 -23 -24 -25 25 26 -28 -29 -30
leaf_value=-0.10185271647101751 0.00039531124923653112 -0.017462126109081849 -0.051033185667926528 -0.022446965765673968 0.040154102389943908 -0.06816767486605417 -0.036710297779402393 0.013044354260768954 -0.0029721672366060381 0.1075217332894975 0.041438724080861106 -0.051988721467064895 -0.089157012525259913 0.049131131832131934 -0.038417847381814398 0.027999710320369766 -0.019365084780345983 0.11470857869809369 0.011934509268042157 0.03299458179577288 0.10430186947242903 -0.06456215126916845 -0.070373627607277819 0.013304405197439001 -0.0020479374478305982 0.04423227168595343 0.095782284253969951 -0.075552062994814456 0.076052131339184842
leaf_weight=467.0911356434226 235.09048314392567 145.07150986790657 236.90325678139925 130.85857020318508 104.59668911248446 243.15529807657003 133.13156381249428 34.789385892450809 215.02714056521654 214.23942174762487 366.5058586075902 13.433844119310377 75.559419296681881 83.50878681242466 174.95564144849777 118.48403283953667 121.56594693660736 15.254099264740942 206.78170800209045 361.49205242842436 167.59715356677771 20.272446967661381 66.699724823236465 15.134523421525953 43.737958937883377 68.632880069315434 200.65904375165701 137.50578001141548 97.413583554327488
leaf_count=5035 1527 906 1709 822 494 2157 1045 177 1186 976 1760 62 699 502 1357 635 817 72 1096 1812 748 133 502 70 215 303 901 1146 440
internal_value=0 0.016332 0.0293265 0.0366728 0.0472803 -0.0799507 -0.0266532 0.00741347 0.0524323 0.0424023 0.0644833 0.0720747 -0.0407358 -0.0338209 -0.0101311 -0.0148875 -0.0519012 0.00736069 0.0304738 0.0195799 0.0749226 0.0144763 -0.0341272 0.101305 0.0824891 0.0708105 0.082644 -0.0564451 0.0594716
internal_weight=0 3683.34 2828.33 2591.43 1901.92 831.812 855.006 689.512 1771.06 1172.4 595.88 598.658 604.661 529.102 258.464 350.528 364.721 250.345 338.985 576.519 585.224 138.756 211.771 229.374 480.627 313.03 269.292 270.637 132.203
internal_count=29304 21295 14947 13238 9349 8009 6348 3889 8527 5804 2806 2723 4749 4050 1859 2176 2974 1599 1713 2998 2661 768 1408 1046 2167 1419 1204 2191 617
is_linear=0
shrinkage=0.1


Tree=11
num_leaves=30
num_cat=0
split_feature=6 3 3 3 5 0 3 0 7 3 3 3 3 3 5 5 3 7 7 5 3 0 3 0 8 0 7 0 7
split_gain=921.47 310.597 293.672 127.81 110.102 86.6908 57.3687 53.9633 49.6574 44.2862 64.798 51.4072 43.8132 87.5529 37.1123 49.4585 33.858 33.3748 64.1561 32.7804 21.4322 28.0341 19.0025 17.5477 16.939 16.5681 16.3562 15.7248 15.6526
threshold=1.5000000000000002 0.90865135637954164 0.53997861502916733 -0.36675162199913525 7.5000000000000009 -0.81224708043171068 -0.33383799675065323 -0.88554268660700364 9.5000000000000018 0.2835600671075586 0.2654977117882697 0.021589017365575901 0.43387900193141837 0.4631132585037489 2.5000000000000004 3.5000000000000004 -0.39859488545091865 4.5000000000000009 3.5000000000000004 6.5000000000000009 -0.45291574663337264 1.8996903480541332 -0.42896640143224146 -0.22588223102936614 1.5000000000000002 0.21389140602239234 13.500000000000002 1.5332123171776677 11.500000000000002
decision_type=2 2 2 2 2 2 2 2 2 2 2 2 2 2 2 2 2 2 2 2 2 2 2 2 2 2 2 2 2
left_child=2 5 3 16 6 22 -5 -8 17 10 11 14 -11 -14 26 23 20 18 -7 -17 -1 -22 -2 -16 28 -20 -9 -25 -10
right_child=1 -3 -4 4 -6 8 7 9 24 12 -12 -13 13 -15 15 19 -18 -19 25 -21 21 -23 -24 27 -26 -27 -28 -29 -30
leaf_value=0.11289041702446333 0.23628034410881651 0.15975043692117741 0.14224179985968308 -0.14459862960342951 -0.052829083500124566 -0.079014153637271295 -0.044631594590212792 0.053779488774505307 0.01415312404221626 -0.14233544869610781 0.21763912199760546 -0.14403748170773581 0.20887532714975215 -0.15081784212812571 -0.023797161688938834 0.07544575187925287 0.14138784285023304 -0.099015692495492302 -0.033540663581923542 0.027016350435094545 -0.13018060441350832 0.15648101345340751 -0.10390572952630273 0.020194754101205803 -0.052705053311344799 0.033099575927967605 -0.057251374164373307 -0.029438360364936845 -0.035665838619443148
leaf_weight=14.776549294590952 1.6473307460546482 61.75310255587101 229.27614931762218 19.762619890272617 197.9597145318985 308.86397231370211 101.57388941943645 649.36172787845135 135.79400785267353 29.243034958839417 18.716597616672516 16.694932878017426 13.932835400104523 13.157958567142487 170.42575234174728 206.1458548605442 112.25964698195457 240.14660449326038 72.374112144112587 434.03509034961462 12.425851389765741 4.7026315703988066 508.84107591211796 449.36319164186716 136.22620136290789 77.000753335654736 13.544457018375395 74.401572450995445 117.75401762127876
leaf_count=62 10 263 1089 102 1417 2946 649 2728 919 148 80 89 62 63 976 861 520 2454 553 1952 77 20 6146 2139 1099 525 60 390 905
internal_value=0 -0.0603087 0.0338307 0.0240927 0.0186179 -0.0688092 0.0250167 0.0265469 -0.0528593 0.0300077 0.0324316 0.0307104 -0.057453 0.0341729 0.0321711 0.0225632 0.115552 -0.0688183 -0.0529929 0.0426112 0.0246481 -0.0514775 -0.102808 0.00407506 -0.0242645 0.000811492 0.0515109 0.0131443 -0.00898404
internal_weight=0 1660.4 2781.76 2552.48 2408.32 1598.65 2210.36 2190.6 1088.16 2089.02 2032.69 2013.97 56.3338 27.0908 1997.28 1334.37 144.165 698.385 458.239 640.181 31.905 17.1285 510.488 694.191 389.774 149.375 662.906 523.765 253.548
internal_count=29304 15820 13484 12395 11716 15557 10299 10197 9401 9548 9275 9195 273 125 9106 6318 679 6478 4024 2813 159 97 6156 3505 2923 1078 2788 2529 1824
is_linear=0
shrinkage=0.1


Tree=12
num_leaves=30
num_cat=0
split_feature=3 8 8 2 3 5 2 3 3 3 5 5 5 3 3 3 3 8 5 3 1 8 4 3 3 3 7 7 5
split_gain=538.304 474.984 262.047 101.509 99.7714 75.5692 45.1697 41.746 31.7037 30.3596 27.8629 31.8206 26.8178 24.5815 22.5002 20.1289 19.4498 17.748 16.5814 15.7661 14.3748 13.7477 13.2136 13.1256 16.8741 33.2434 12.8772 13.6433 11.0412
threshold=0.53997861502916733 1.0000000180025095e-35 4.5000000000000009 0.1692211652768619 -0.36675162199913525 7.5000000000000009 -0.71928918297706057 -0.33383799675065323 0.4631132585037489 -0.43070573935187667 2.5000000000000004 3.5000000000000004 6.5000000000000009 0.49074197238103157 -0.39859488545091865 0.49074197238103157 -0.4502398421416261 1.5000000000000002 1.0000000180025095e-35 -0.45291574663337264 -0.69427024864091869 1.5000000000000002 1.5000000000000002 0.43387900193141837 0.2835600671075586 0.2654977117882697 9.5000000000000018 11.500000000000002 7.5000000000000009
decision_type=2 2 2 2 2 2 2 2 2 2 2 2 2 2 2 2 2 2 2 2 2 2 2 2 2 2 2 2 2
left_child=1 4 3 9 14 6 -6 -8 10 -3 18 23 -13 17 19 16 -5 26 -9 -1 -14 -18 -4 24 25 -12 -11 -28 -24
right_child=-2 2 22 15 5 -7 7 8 -10 13 11 12 20 -15 -16 -17 21 -19 -20 -21 -22 -23 28 -25 -26 -27 27 -29 -30
leaf_value=0.10818529319250142 0.13096626211328627 0.078242815764354309 -0.029316311212619624 0.1540092958043785 -0.041285651362701521 -0.048963716533306174 -0.13899937455881753 0.017579369964929075 -0.14513936353206272 -0.081492638973651277 0.0014347189856452327 0.067889008101588141 -0.010611145216775975 0.13311004018914624 0.13138932104346515 0.1755351876079613 -0.016133890845947189 -0.095441838543338473 0.055062496427359144 -0.044781320244357985 0.032241914137918645 -0.054282398071296867 0.053742594342742478 0.16696823291877211 -0.13069763717386881 0.25274036608443645 -0.020489375228932478 -0.077885124251070512 -0.039267938443361648
leaf_weight=12.832357183098795 287.14317513257265 11.824498713016508 23.831765301525593 5.8951715379953376 111.26303089410067 169.88192968070507 15.515950091183184 163.50315544009209 10.794785276055334 317.21007188409567 622.30789315700531 174.58806186914444 106.14369666576385 5.2446045726537696 94.146040171384811 4.9944380521774283 282.58182883262634 597.20700746029615 424.24091678857803 14.187658064067362 298.16936016082764 141.90408588945866 233.38736863434315 4.8336504846811286 9.5031066685914976 5.3087193816900244 89.157173924148083 77.342177085578442 13.501249343156813
leaf_count=55 1421 55 120 25 658 1248 85 714 54 3639 3135 730 490 26 464 22 1980 7225 1742 86 1330 1145 1074 21 55 23 781 800 101
internal_value=0 -0.0107338 -0.0489111 -0.064925 0.0200522 0.0149989 0.0205822 0.0243337 0.0257266 -0.0811269 0.0267464 0.0181344 0.0351353 -0.0828618 0.108304 -0.0240653 -0.0263816 -0.0839097 0.0446352 0.0278656 0.0209918 -0.0288868 0.0417923 0.00280331 0.00155784 0.0035604 -0.0696717 -0.0471508 0.0486563
internal_weight=0 4041.3 1804.08 1533.36 2237.22 2116.05 1946.17 1834.91 1819.39 1097.99 1808.6 1220.85 578.901 1086.16 121.166 435.376 430.381 1080.92 587.744 27.02 404.313 424.486 270.72 641.953 637.12 627.617 483.709 166.499 246.889
internal_count=29304 27883 16993 15698 10890 10285 9037 8379 8294 12526 8240 5784 2550 12471 605 3172 3150 12445 2456 141 1820 3125 1295 3234 3213 3158 5220 1581 1175
is_linear=0
shrinkage=0.1


Tree=13
num_leaves=30
num_cat=0
split_feature=0 8 8 2 5 2 0 7 0 0 1 7 7 10 7 8 8 5 5 5 0 7 7 0 1 7 7 2 5
split_gain=436.128 202.219 158.23 77.0217 67.8426 38.4333 30.844 29.7772 27.8682 31.077 20.4043 17.5878 23.8387 16.1428 16.6494 15.4808 22.6142 14.7979 24.8553 35.4489 13.5043 13.4014 15.8849 13.2905 12.2724 12.0324 19.4353 14.3407 12.0306
threshold=-0.81224708043171068 1.0000000180025095e-35 4.5000000000000009 0.1692211652768619 7.5000000000000009 0.088447497253777999 -1.1054295051328829 9.5000000000000018 0.21389140602239234 1.5332123171776677 -0.97527582137721647 5.5000000000000009 3.5000000000000004 1.0000000180025095e-35 13.500000000000002 4.5000000000000009 1.0000000180025095e-35 2.5000000000000004 3.5000000000000004 6.5000000000000009 1.0000000180025095e-35 9.5000000000000018 13.500000000000002 -0.37247344337995225 1.516344054890898 9.5000000000000018 7.5000000000000009 -0.47696817890780902 1.0000000180025095e-35
decision_type=2 2 2 2 2 2 2 2 2 2 2 2 2 2 2 2 2 2 2 2 2 2 2 2 2 2 2 2 2
left_child=6 4 3 7 5 8 -1 11 21 25 -7 12 -3 -9 23 16 -8 28 -19 -20 -21 -2 -23 -15 -22 26 27 -10 -5
right_child=1 2 -4 17 -6 10 15 13 9 -11 -12 -13 -14 14 -16 -17 -18 18 19 20 24 22 -24 -25 -26 -27 -28 -29 -30
leaf_value=-0.10151679241708778 -0.0099027456620325305 -0.073895168876481496 0.050566253090392123 -0.030234433131082997 -0.032291365090241414 0.015271102346033155 -0.025265863464836221 -0.049964011905854172 -0.047699018002733927 -0.0033907616403827585 0.055926081816558143 -0.098341693700862556 -0.011226681369140665 -0.044569839876101761 -0.086611005779576658 0.015683889519494176 -0.085701142080919904 -0.057903280089148593 0.072743309424990271 -0.070681007422134845 -0.0084533686358575031 0.037501048406607645 -0.047262775286728072 0.045903320919510694 0.17186836909884362 0.065752996222935609 -0.068178574730018357 0.045626003781019699 0.039997833837076772
leaf_weight=313.18090718239546 285.03772623091936 223.41266928613186 262.52327124774456 30.995257318019867 162.46418204158545 145.82003658264875 97.290769502520561 129.26200770586729 17.407169193029404 161.52152875810862 804.76177264004946 153.38182797282934 83.343123205006123 22.09787242859602 17.027614273130894 27.029047220945358 170.283741556108 87.302543170750141 55.398761421442032 41.541063614189625 49.163534231483936 151.3251067250967 25.891495481133461 61.218193404376507 4.0881084725260726 204.11913591623306 17.316297486424446 304.34469649195671 114.45439232140779
leaf_count=4320 1458 2520 1223 202 1183 658 602 1183 103 817 3643 1951 778 213 179 144 2170 678 299 323 349 675 144 448 29 919 84 1382 627
internal_value=0 0.0118858 -0.0190197 -0.0360498 0.0299846 0.0347626 -0.0796678 -0.0560159 0.0226034 0.0351193 0.0496896 -0.0706932 -0.0568686 -0.0266022 0.00349241 -0.056441 -0.0637267 -8.7626e-05 -0.0154714 0.00919323 -0.0279467 0.00352293 0.025117 0.0219072 0.00538986 0.0465706 0.0350228 0.040577 0.0250314
internal_weight=0 3615.22 1335.21 1072.69 2280.01 2117.54 607.784 689.743 1166.96 704.709 950.582 460.138 306.756 229.606 100.344 294.604 267.575 382.944 237.494 150.191 94.7927 462.254 177.217 83.3161 53.2516 543.187 339.068 321.752 145.45
internal_count=29304 22068 11002 9779 11066 9883 7236 7272 5582 3305 4301 5249 3298 2023 840 2916 2772 2507 1678 1000 701 2277 819 661 378 2488 1569 1485 829
is_linear=0
shrinkage=0.1


Tree=14
num_leaves=30
num_cat=0
split_feature=3 8 8 2 3 0 0 0 3 0 3 3 3 3 3 2 4 3 3 0 3 4 10 3 10 0 3 0 0
split_gain=449.731 337.631 193.479 88.6029 86.7913 43.9823 40.7861 36.2839 28.6478 26.7761 24.5867 25.5111 46.2074 37.7625 30.2664 23.4407 23.8841 22.3251 20.8529 18.1882 17.5547 17.1768 15.035 14.2744 14 16.8841 12.8052 24.4559 12.7759
threshold=0.53997861502916733 1.0000000180025095e-35 4.5000000000000009 0.1692211652768619 -0.38086701819309804 -0.44576904955524532 -0.37247344337995225 1.8996903480541332 -0.33383799675065323 -0.81224708043171068 0.4631132585037489 0.43387900193141837 0.2835600671075586 0.2654977117882697 0.14120194814664463 0.088447497253777999 3.5000000000000004 0.49074197238103157 -0.39859488545091865 0.36048261837297851 -0.43070573935187667 4.5000000000000009 1.0000000180025095e-35 0.49074197238103157 1.0000000180025095e-35 1.0000000180025095e-35 -0.45291574663337264 1.8996903480541332 -1.0321338989575897
decision_type=2 2 2 2 2 2 2 2 2 2 2 2 2 2 2 2 2 2 2 2 2 2 2 2 2 2 2 2 2
left_child=1 4 3 5 18 -3 28 8 -8 -5 11 12 13 14 15 19 -17 20 26 -10 -7 -18 -22 24 -11 -26 -1 -28 -6
right_child=-2 2 -4 9 6 17 7 -9 10 23 -12 -13 -14 -15 -16 16 21 -19 -20 -21 22 -23 -24 -25 25 -27 27 -29 -30
leaf_value=0.097531906998473805 0.12385894984991992 -0.098132961242747618 0.032568778067332167 -0.077573807875095449 -0.07491594165590533 0.077859522345540444 -0.13407676861337278 -0.043370338787248608 -0.005021808514695328 -0.037142522711900591 -0.14165461125224363 0.16894834590457619 -0.1384079959003546 0.17999679142968872 -0.14084106065439822 0.049536550351455183 -0.017910011351839842 0.16597351117994213 0.12497887212918501 0.024836412525194043 -0.074029652206796401 0.04593940783431022 -0.038258460669368721 0.1579549990887972 -0.023748555046107893 0.032875222673828045 -0.13569123662722324 0.14439232080451278 -0.011561906363229141
leaf_weight=12.365492686629297 268.66035507619381 461.42703435197473 275.58391647785902 69.360679306089878 34.682947553694248 9.407870486378668 11.747123248875139 91.123356059193611 337.91775577515364 135.01813400536776 9.0537047535181028 11.985477358102797 17.645882032811642 15.428877323865889 11.224558375775812 486.06951719522476 109.2786665558815 4.5122095942497245 86.181348279118538 514.85031490027905 300.37920735403895 68.572499990463257 192.99307087808847 5.0132637023925772 107.05246203392744 103.6422203630209 9.3288057744503003 4.6822234541177741 387.03505582362413
leaf_count=55 1421 6953 1295 817 281 42 70 525 1639 944 47 51 97 65 65 2112 496 20 459 2475 3474 291 2037 21 766 624 66 20 2076
internal_value=0 -0.00992365 -0.0439703 -0.0591581 0.0156115 -0.0757912 0.0110402 0.0180014 0.0215103 -0.0208021 0.0226656 0.0236114 0.0224955 0.0243352 0.0227633 0.0239741 0.0380636 -0.0554694 0.101167 0.0130048 -0.0574567 0.00670784 -0.060037 -0.00957478 -0.0120042 0.00410509 0.0233643 -0.0420926 -0.0167723
internal_weight=0 3883.56 1664.39 1388.81 2219.17 968.719 2106.62 1684.9 1593.77 420.087 1582.03 1572.97 1560.99 1543.34 1527.91 1516.69 663.921 507.292 112.558 852.768 502.78 177.851 493.372 350.726 345.713 210.695 26.3765 14.011 421.718
internal_count=29304 27883 16993 15698 10890 12526 10290 7933 7408 3172 7338 7291 7240 7143 7078 7013 2899 5573 600 4114 5553 787 5511 2355 2334 1390 141 86 2357
is_linear=0
shrinkage=0.1


Tree=15
num_leaves=30
num_cat=0
split_feature=6 0 5 2 0 0 5 0 5 8 9 0 5 5 5 5 5 5 0 5 5 5 5 5 0 5 4 5 2
split_gain=477.099 104.478 70.5688 58.2578 41.5749 29.6496 24.8213 24.4365 22.164 14.2064 13.932 12.9466 13.7549 12.8689 18.4585 31.095 12.6683 12.5557 12.1655 12.0297 10.9641 23.6337 18.78 10.6209 10.1417 10.0372 10.5471 9.92447 8.30661
threshold=1.5000000000000002 -0.81224708043171068 7.5000000000000009 0.1692211652768619 -0.22588223102936614 1.5332123171776677 2.5000000000000004 -1.0321338989575897 2.5000000000000004 1.5000000000000002 1.5000000000000002 0.21389140602239234 1.0000000180025095e-35 2.5000000000000004 3.5000000000000004 6.5000000000000009 1.0000000180025095e-35 1.0000000180025095e-35 1.0000000180025095e-35 3.5000000000000004 2.5000000000000004 3.5000000000000004 6.5000000000000009 2.5000000000000004 -0.15258662485407304 6.5000000000000009 4.5000000000000009 1.5000000000000002 -0.71928918297706057
decision_type=2 2 2 2 2 2 2 2 2 2 2 2 2 2 2 2 2 2 2 2 2 2 2 2 2 2 2 2 2
left_child=2 -2 4 6 7 10 11 -1 17 -8 -6 -3 -13 16 -15 -16 -5 -9 -17 -10 -12 -22 -23 27 -4 26 -21 -7 -19
right_child=1 3 24 13 5 23 9 8 19 -11 20 12 -14 14 15 18 -18 28 -20 25 21 22 -24 -25 -26 -27 -28 -29 -30
leaf_value=-0.065894656256793457 -0.094091725286399669 -0.043702610175286066 -0.071600521313503113 -0.036145785518104816 0.012013466730810565 0.020056529851575054 -0.047102134237784178 -0.00083878827077313821 -0.018812664585000541 -0.082857455182646755 0.055994269574324844 -0.046642172708885099 0.043245026601176878 -0.053513509304593448 0.064515591221496305 -0.073842792105021315 0.037723886230602161 -0.035639150472351881 0.00062457915764972671 0.082698388735933978 0.021619733522058773 0.079795084598970237 0.03844365297965624 -0.011455259199384962 -0.020678637642896118 0.0022698505454561602 -0.021986131417836459 0.12989500696518377 0.056465428615389036
leaf_weight=43.512976065278053 378.59722624719143 90.193265095353127 54.1839464828372 29.195503570139408 155.51686938852072 59.084303110837936 243.48718653619289 65.858421050012112 214.55770472437143 204.41348968073726 472.58143848925829 25.911156795918941 49.634578891098499 82.456322804093361 55.583513513207436 37.770925179123878 113.35403047502041 10.444207943975924 52.335526302456856 35.927017651498318 477.4168188944459 169.64662523567677 311.47495340555906 165.09130890667439 140.59927715361118 143.62453898787498 13.145807430148123 9.5567514598369581 156.74605694413185
leaf_count=343 6179 961 453 198 721 279 2858 314 1248 2678 2121 256 412 673 298 316 620 50 371 161 2245 827 1358 834 1027 719 58 47 679
internal_value=0 -0.0494483 0.0231343 -0.0322774 0.0276441 0.0355413 -0.051186 0.00662119 0.0115491 -0.0634202 0.0404396 -0.0181236 0.0124149 -0.000976776 -0.0157046 0.00569415 0.0225947 0.0361438 -0.0305907 -0.00252499 0.0435286 0.0373828 0.0530244 0.00228996 -0.0348439 0.0156104 0.0546551 0.0353491 0.0507117
internal_weight=0 1362.93 2698.97 984.335 2504.19 1820.37 613.64 683.817 640.304 447.901 1586.64 165.739 75.5457 370.696 228.146 145.69 142.55 233.049 90.1065 407.255 1431.12 958.538 481.122 233.732 194.783 192.697 49.0728 68.6411 167.19
internal_count=29304 15820 13484 9641 12004 8432 7165 3572 3229 5536 7272 1629 668 2476 1658 985 818 1043 687 2186 6551 4430 2185 1160 1480 938 219 326 729
is_linear=0
shrinkage=0.1


Tree=16
num_leaves=30
num_cat=0
split_feature=3 0 8 8 3 5 7 7 7 3 0 0 0 3 3 1 0 9 5 0 7 3 8 0 1 7 1 5 5
split_gain=380.944 257.794 118.568 107.365 73.5144 36.8769 36.2847 36.1142 51.4354 31.3473 17.554 30.9139 16.6925 16.2205 13.2228 12.6905 12.3752 11.7844 12.619 11.323 11.2267 10.9068 10.381 12.4778 10.0717 9.94606 9.69975 9.15222 10.5012
threshold=0.81251948751354852 -0.88554268660700364 1.0000000180025095e-35 4.5000000000000009 -0.36675162199913525 7.5000000000000009 9.5000000000000018 4.5000000000000009 3.5000000000000004 -0.33383799675065323 0.36048261837297851 1.5332123171776677 -1.1054295051328829 -0.39859488545091865 0.53997861502916733 -0.97527582137721647 0.21389140602239234 1.5000000000000002 7.5000000000000009 1.0934386801259095 12.500000000000002 -0.42401597812251041 1.5000000000000002 0.28718701219768544 -1.2030954702113303 2.5000000000000004 -0.8268574515529119 2.5000000000000004 3.5000000000000004
decision_type=2 2 2 2 2 2 2 2 2 2 2 2 2 2 2 2 2 2 2 2 2 2 2 2 2 2 2 2 2
left_child=1 12 4 6 13 9 7 8 25 -6 14 26 -1 21 15 -11 -10 -5 19 -19 22 -3 24 -24 -8 -4 -12 -17 -29
right_child=-2 2 3 17 5 -7 20 -9 16 10 11 -13 -14 -15 -16 27 -18 18 -20 -21 -22 -23 23 -25 -26 -27 -28 28 -30
leaf_value=-0.099279193219480158 0.12633853775670176 0.057952117169281149 -0.078867654698465545 -0.017149952985424054 -0.13359074229411524 -0.037194898951505094 -0.058792811506601976 -0.090718045009439141 -0.020153075193866502 -0.022273619541215539 0.011612216424060285 -0.011204231356200753 -0.059077639990194435 0.11929477846128259 0.13610744006184392 0.024484021899102093 0.038900309524395486 0.057497086923322421 -0.066194077787029126 -0.0096901209598911683 -0.050742840631040689 -0.11394616140410202 -0.06549342436304087 0.0072206812730778161 0.014243968968776069 -0.037393544476183656 0.040658084070296058 -0.01127441889867088 0.01682010673782899
leaf_weight=243.53936751931906 221.29302255809307 19.674510568380359 168.52296503260732 39.08648819476366 14.201933160424231 149.41053116321564 21.109587445855141 191.74858449772 68.680366158485413 143.69679307937622 143.56517164409161 182.46261614561081 179.34375726431608 78.672378644347191 7.7701461166143408 283.12581074237823 73.423437356948853 175.98560094833374 10.170604489743708 29.25295215845108 70.896223589777946 4.5435021892189971 53.645077276974916 42.135742679238319 178.83135634660721 88.025082711130381 577.26893581449986 276.66543319821358 256.29108266532421
leaf_count=4308 1259 90 2147 186 85 1161 151 2616 604 680 627 901 2157 457 42 1197 526 767 74 128 713 45 555 349 1369 997 2513 1463 1137
internal_value=0 -0.00865935 0.000630877 -0.0243616 0.0147974 0.0106266 -0.0397129 -0.0550568 -0.037904 0.014417 0.0155406 0.0255657 -0.0822298 0.0972653 0.00618117 0.00512932 0.0103591 0.0333665 0.0425328 0.0479208 -0.0150032 0.0257026 -0.00643502 -0.0335052 0.00653281 -0.0646373 0.0348732 0.00995446 0.00223583
internal_weight=0 3771.75 3348.86 1211.51 2137.35 2034.46 957.018 590.4 398.652 1885.05 1870.85 903.297 422.883 102.89 967.549 959.779 142.104 254.496 215.409 205.239 366.618 24.218 295.722 95.7808 199.941 256.548 720.834 816.082 532.957
internal_count=29304 28045 21580 11182 10398 9806 10027 6890 4274 8645 8560 4041 6465 592 4519 4477 1130 1155 969 895 3137 135 2424 904 1520 3144 3140 3797 2600
is_linear=0
shrinkage=0.1


Tree=17
num_leaves=30
num_cat=0
split_feature=6 3 3 0 3 10 5 3 3 3 3 3 3 0 3 5 5 5 3 0 5 5 5 7 5 5 1 7 3
split_gain=343.239 189.468 170.526 77.6132 77.4817 41.7747 41.3985 31.2932 29.4722 47.4821 37.7447 33.6919 56.6367 25.9209 24.6271 21.9088 26.9485 22.3973 19.059 16.517 15.0269 13.4982 13.2282 12.7579 13.091 17.3753 12.6546 11.6791 11.5337
threshold=1.5000000000000002 0.53997861502916733 0.90865135637954164 -0.81224708043171068 -0.38086701819309804 1.0000000180025095e-35 7.5000000000000009 -0.33383799675065323 0.2835600671075586 0.2654977117882697 0.021589017365575901 0.43387900193141837 0.4631132585037489 1.0000000180025095e-35 -0.39859488545091865 2.5000000000000004 3.5000000000000004 6.5000000000000009 -0.42896640143224146 -0.59236026190583135 7.5000000000000009 2.5000000000000004 1.5000000000000002 2.5000000000000004 2.5000000000000004 1.5000000000000002 -0.36441179053120948 4.5000000000000009 -0.45291574663337264
decision_type=2 2 2 2 2 2 2 2 2 2 2 2 2 2 2 2 2 2 2 2 2 2 2 2 2 2 2 2 2
left_child=1 4 3 18 14 23 7 -6 9 10 15 -10 -13 21 28 22 19 -18 -2 -17 -15 -7 -9 -5 25 -25 -19 -21 -1
right_child=2 -3 -4 5 6 13 -8 8 11 -11 -12 12 -14 20 -16 16 17 26 -20 27 -22 -23 -24 24 -26 -27 -28 -29 -30
leaf_value=0.080041831456733367 0.25128364507993484 0.12057240967592138 0.13310943141673068 -0.087087575575293161 -0.12211018307886144 -0.0047368770043075843 -0.038958233697853069 0.025890103251220337 -0.13625323129438363 0.16988481410688724 -0.13717593587858767 0.15138527827663223 -0.13886682340458767 0.017425379734867873 0.11922029956912122 -0.04420982544997925 0.050308787788105207 -0.010629027515391083 -0.095930306248910524 0.01402505203337563 -0.062658527415943036 -0.059694809302517297 0.085151240761583688 -0.033273444871012296 -0.062544668966532463 0.10150852407106326 0.023129468888396548 -0.012934636035869555 -0.047811914649867504
leaf_weight=13.210390076041223 1.5888101160526265 172.43798541277647 51.934836313128471 112.75015633553267 17.26422581076622 67.89489546045661 171.92788349092007 643.7629531621933 27.938448987901211 19.591499872505665 16.49869866669178 14.872671253979206 12.268278405070305 205.61822642758489 86.00203774869442 96.409769847989082 198.00540526211262 179.84836322814226 317.79409208893776 312.77803549170494 26.443705007433891 130.76264233887196 40.007857158780098 105.97250035777688 220.71280095726252 10.513570502400396 290.23688159883022 330.45351868122816 15.144461512565611
leaf_count=62 10 1089 263 1580 107 571 1417 2759 158 85 100 63 67 1711 515 676 871 832 6146 1482 308 1561 172 929 2689 52 1303 1629 97
internal_value=0 0.0192069 -0.0442957 -0.0519733 0.0121765 -0.0366583 0.00830017 0.0119935 0.0130542 0.0149239 0.0134837 -0.0591665 0.0201852 -0.0143978 0.0925741 0.0146721 0.00753907 0.022097 -0.094203 -0.00561059 0.00829973 -0.0409119 0.0293575 -0.0579675 -0.0482305 -0.0211086 0.0102139 0.000174793 0.0117545
internal_weight=0 2658.66 1251.99 1200.05 2486.22 880.668 2371.86 2199.94 2182.67 2127.59 2108 55.0794 27.1409 430.719 114.357 2091.5 1407.73 668.091 319.383 739.641 232.062 198.658 683.771 449.949 337.199 116.486 470.085 643.232 28.3549
internal_count=29304 13484 15820 15557 12395 9401 11721 10304 10197 9909 9824 288 130 4151 674 9724 6793 3006 6156 3787 2019 2132 2931 5250 3670 981 2135 3111 159
is_linear=0
shrinkage=0.1


Tree=18
num_leaves=30
num_cat=0
split_feature=6 3 3 0 3 2 3 2 7 3 3 3 3 3 3 0 10 7 7 3 7 7 7 7 4 4 7 7 7
split_gain=289.911 169.159 146.303 75.0427 67.7155 49.5204 30.1533 29.5275 26.3038 23.9513 24.4471 52.037 45.4397 31.9039 22.1607 20.0557 16.2067 15.7922 22.5901 15.2358 14.4792 66.0849 32.2305 18.122 17.4071 13.5899 13.497 31.051 20.0793
threshold=1.5000000000000002 0.53997861502916733 0.90865135637954164 -0.81224708043171068 -0.36675162199913525 0.57308950539228121 -0.33383799675065323 -0.47696817890780902 9.5000000000000018 0.4631132585037489 0.43387900193141837 0.2835600671075586 0.2654977117882697 0.021589017365575901 -0.39859488545091865 -0.15258662485407304 1.0000000180025095e-35 4.5000000000000009 3.5000000000000004 -0.42896640143224146 4.5000000000000009 9.5000000000000018 3.5000000000000004 13.500000000000002 3.5000000000000004 4.5000000000000009 9.5000000000000018 4.5000000000000009 3.5000000000000004
decision_type=2 2 2 2 2 2 2 2 2 2 2 2 2 2 2 2 2 2 2 2 2 2 2 2 2 2 2 2 2
left_child=1 4 3 19 14 8 -6 -8 17 10 11 12 13 15 -1 26 -10 18 -5 -2 22 -22 -17 -23 -24 -26 27 28 -9
right_child=2 -3 -4 5 6 -7 7 9 16 -11 -12 -13 -14 -15 -16 20 -18 -19 -20 -21 21 23 24 -25 25 -27 -28 -29 -30
leaf_value=0.010825463699033698 0.19557423225417717 0.1169704491403383 0.12740350862750624 -0.070548394347713636 -0.12823464377341248 0.0042152907228405105 -0.028975979547974789 -0.014698209556395683 -0.047333646895468422 -0.13341474084459465 0.14119952285263093 -0.13101403107612414 0.16736472481774478 -0.13171206812534786 0.11421676298995741 0.012673449280257898 0.0063721027773785497 -0.093853283942354315 -0.0067565267009825408 -0.094484752625219326 -0.036186774606204279 0.037713751657936452 0.074368512458768243 -0.010663756044253481 -0.030849715767801281 0.055731724711043706 0.016344929907298241 -0.055924593890175622 0.041435804165221274
leaf_weight=27.789579920470715 1.8222026079893101 160.58504213392735 48.987257279455662 180.06522291526198 16.259290307760239 242.03812901675701 193.6827637553215 179.28458864241838 119.34489822387695 11.299514085054396 14.672104924917219 25.255222037434578 18.992721147835255 15.337097529321907 81.614566661417484 394.03147532790899 106.17987374588847 127.36905711889267 80.253278061747551 291.73012414574623 217.19476524740458 441.01753300428391 185.73966772854328 93.92225243896246 32.935211986303329 40.325228095054626 259.42289493232965 118.22636319324374 98.861140541732311
leaf_count=159 10 1089 263 2617 114 1694 1167 1036 1264 67 63 159 85 104 520 1806 940 2133 753 6146 1146 1892 797 467 142 172 1253 805 441
internal_value=0 0.0175227 -0.0418423 -0.0490592 0.0110463 -0.0340856 0.00747568 0.00841857 -0.0492032 0.0117927 0.0125612 0.0116711 0.0133909 0.0119825 0.0879545 0.0130518 -0.0220483 -0.0649996 -0.0508821 -0.0926842 0.0197909 0.0103323 0.030685 0.0292199 0.058087 0.0168079 -0.00138806 -0.0129942 0.00525346
internal_weight=0 2626.45 1197.79 1148.8 2465.86 855.25 2356.46 2340.2 613.212 2146.52 2135.22 2120.55 2095.29 2076.3 109.404 2060.96 225.525 387.688 260.319 293.552 1405.17 752.135 653.032 534.94 259 73.2604 655.795 396.372 278.146
internal_count=29304 13484 15820 15557 12395 9401 11716 11602 7707 10435 10368 10305 10146 10061 679 9957 2204 5503 3370 6156 6422 3505 2917 2359 1111 314 3535 2282 1477
is_linear=0
shrinkage=0.1


Tree=19
num_leaves=30
num_cat=0
split_feature=3 6 0 3 2 3 2 10 3 3 3 3 3 3 3 0 0 3 3 3 3 2 0 10 0 0 3 1 4
split_gain=252.359 247.953 71.7366 57.4564 42.784 26.6818 24.9906 21.0662 20.5945 19.0525 20.763 20.0214 45.1746 38.1522 27.7392 16.3345 14.5816 12.6669 11.8365 25.9307 15.047 11.1239 11.766 11.2601 10.8057 10.3312 9.77918 9.76914 9.10354
threshold=0.81251948751354852 1.5000000000000002 -0.81224708043171068 -0.36675162199913525 0.57308950539228121 -0.33383799675065323 -0.47696817890780902 1.0000000180025095e-35 -0.39859488545091865 0.53997861502916733 0.4631132585037489 0.43387900193141837 0.2835600671075586 0.2654977117882697 0.021589017365575901 -0.15258662485407304 0.43377822454827158 -0.42896640143224146 -0.34146432455213077 -0.34688303114791746 -0.4016721756164271 0.65386317341536515 -1.0321338989575897 1.0000000180025095e-35 -0.66565586808112454 1.9729859542294264 -0.42401597812251041 1.4040484997296578 3.5000000000000004
decision_type=2 2 2 2 2 2 2 2 2 2 2 2 2 2 2 2 2 2 2 2 2 2 2 2 2 2 2 2 2
left_child=1 3 17 8 7 -5 24 -4 26 10 11 12 13 14 15 21 -9 -3 19 20 -6 22 -8 -24 -7 27 -1 -17 -27
right_child=-2 2 4 5 18 6 9 16 -10 -11 -12 -13 -14 -15 -16 25 -18 -19 -20 -21 -22 -23 23 -25 -26 28 -28 -29 -30
leaf_value=0.037747451451836653 0.11437074750487204 0.15983896349852889 -0.063483428909422865 -0.12514502566624713 0.11211682624205228 -0.096656508324445278 -0.071350958511874826 -0.042720281670808179 0.11028257579859035 0.11848578107768859 -0.12948557601427754 0.12831442466227888 -0.12743850900080561 0.15525325435315984 -0.12834344295643516 0.016917053412795837 0.0066087111051215319 -0.093020405254657129 -0.0020268915902739849 0.32997961328876046 -0.12531579163362014 0.018235765901823173 0.033082810034916449 -0.012639598070685494 -0.018157009304507237 -0.00045555115499453609 -0.11591351655167673 0.04949195429151778 -0.10763080776209424
leaf_weight=22.725240245461467 180.38263493776321 1.9958884567022313 323.4690859131515 15.056443244218825 6.6240275502204886 19.513382337987423 29.245731469243765 170.33286660909653 76.346622012555599 16.516011379659176 10.518337868154047 14.537229150533674 23.459744248539209 18.454301089048386 14.22297804430127 1263.8165768906474 92.447097457945347 267.91503837704659 227.68424873054028 3.4605690613389006 4.4704809486865988 201.79634188860655 63.405677981674671 357.86238343268633 172.99979653209448 24.859417766332626 5.0647122152149668 99.297462150454521 11.634625524282454
leaf_count=106 1259 10 4596 114 32 146 278 2143 520 100 67 63 159 85 104 5784 956 6146 1608 21 31 983 305 1969 1028 127 53 454 57
internal_value=0 -0.00686922 -0.0463769 0.0107615 -0.0317901 0.00755019 0.00840322 -0.0463978 0.0834525 0.0114944 0.010666 0.0113606 0.010554 0.012107 0.0108284 0.0117931 -0.0253661 -0.0911506 0.00356205 0.0909896 0.0164444 -0.00127608 -0.0100159 -0.00575785 -0.0261138 0.0178842 0.00974278 0.01929 -0.034624
internal_weight=0 3559.73 1098.4 2461.33 828.488 2357.2 2342.14 586.249 104.137 2149.63 2133.11 2122.59 2108.06 2084.6 2066.14 2051.92 262.78 269.911 242.239 14.5551 11.0945 652.31 450.514 421.268 192.513 1399.61 27.79 1363.11 36.494
internal_count=29304 28045 15543 12502 9387 11823 11709 7695 679 10535 10435 10368 10305 10146 10061 9957 3099 6156 1692 84 63 3535 2552 2274 1174 6422 159 6238 184
is_linear=0
shrinkage=0.1


Tree=20
num_leaves=30
num_cat=0
split_feature=3 6 0 3 2 7 7 7 7 3 7 7 7 0 2 3 7 3 3 1 7 0 0 0 0 8 0 1 9
split_gain=220.698 209.841 68.6535 50.2274 36.8184 24.0946 21.8544 91.5184 51.1109 19.1267 16.2369 20.8798 15.9209 12.9493 11.6154 11.4081 10.8898 10.773 9.78446 9.63986 9.70934 8.97553 8.55354 12.2865 8.0952 8.8669 8.74005 9.70366 7.98643
threshold=0.81251948751354852 1.5000000000000002 -0.81224708043171068 -0.38086701819309804 0.57308950539228121 9.5000000000000018 9.5000000000000018 4.5000000000000009 3.5000000000000004 -0.39859488545091865 4.5000000000000009 3.5000000000000004 13.500000000000002 0.21389140602239234 -0.073099838792389737 0.43387900193141837 11.500000000000002 -0.42896640143224146 -0.4502398421416261 -0.69427024864091869 12.500000000000002 -0.15258662485407304 1.3133254986517886 -0.44576904955524532 -0.37247344337995225 1.5000000000000002 1.8996903480541332 -0.47237430716367729 1.0000000180025095e-35
decision_type=2 2 2 2 2 2 2 2 2 2 2 2 2 2 2 2 2 2 2 2 2 2 2 2 2 2 2 2 2
left_child=1 3 17 9 5 10 7 8 14 21 11 -4 19 -13 -5 -9 24 -3 -6 -8 22 -1 23 -21 -7 26 27 -26 -29
right_child=-2 2 4 6 18 16 12 15 -10 -11 -12 13 -14 -15 -16 -17 -18 -19 -20 20 -22 -23 -24 -25 25 -27 -28 28 -30
leaf_value=-0.10691686668434455 0.11104142974024141 0.13453244149815999 -0.065098030127948958 -0.033314798860953225 0.15643504087107163 -0.049290561955880302 0.0060879149252821251 -0.044798564153356896 0.043327780427643153 0.10759212146807856 -0.090849202724874609 -0.048735759848040898 -0.010507141726957152 0.034032121682694948 0.00331911351845249 0.076357859926160537 -0.041949041437334127 -0.091526739906222149 0.00052197308935560767 0.00080989681186325897 0.073345756790593672 0.037348022370565247 -0.00608961553667965 0.041621179936766811 -0.011027070909455608 -0.02919568332107585 -0.10115788497973205 -0.063843898229913695 0.088609425512221743
leaf_weight=5.3732438981533077 167.85914808511734 2.1263186335563651 162.6365197263658 101.90808472782373 4.0942683368921271 23.26539945602417 196.62019378691912 380.27705943211913 388.0562142804265 70.335167042911053 112.47075192630291 33.38793047145009 151.11162992194295 43.569977447390556 574.31162285804749 7.9339250028133383 95.55305090919137 246.17712830379605 238.09948854893446 94.341878119856119 51.229053445160389 21.84763241186738 65.367062859237194 338.25763604044914 19.568819843232632 29.1764693595469 4.2666243091225615 3.7853371426463118 37.255585752427578
leaf_count=38 1259 10 2615 616 19 267 883 2336 1737 515 2132 378 825 374 2889 44 1128 6146 1673 470 229 121 315 1484 155 299 34 32 281
internal_value=0 -0.00633792 -0.043608 0.00973752 -0.029462 -0.0434463 0.00681806 -0.000760954 0.0143992 0.0800461 -0.0595049 -0.0447912 0.0190915 -0.00187645 -0.00220171 -0.0423225 -0.0168873 -0.0895909 0.00315767 0.0250886 0.0318911 0.00887097 0.0276264 0.032721 0.00352498 0.0165897 0.0371805 0.0469188 0.0745482
internal_weight=0 3502.4 1055.43 2446.97 807.13 564.936 2349.41 1452.49 1064.28 97.556 352.065 239.594 896.927 76.9579 676.22 388.211 212.871 248.303 242.194 745.816 549.196 27.2209 497.967 432.6 117.318 94.0528 64.8764 60.6097 41.0409
internal_count=29304 28045 15543 12502 9387 7695 11828 7622 5242 674 5499 3367 4206 752 3505 2380 2196 6156 1692 3381 2498 159 2269 1954 1068 801 502 468 313
is_linear=0
shrinkage=0.1


Tree=21
num_leaves=30
num_cat=0
split_feature=3 0 3 8 8 2 2 10 0 0 3 3 0 2 0 4 3 2 4 2 2 9 9 8 0 2 0 3 3
split_gain=193.298 147.367 53.9209 41.0669 53.3691 36.7866 20.254 19.5946 16.4985 15.5329 13.1159 18.7097 12.9269 10.5845 10.4655 10.2081 9.96834 9.65736 10.5521 9.58955 10.9501 8.7356 8.16433 7.54507 6.76557 6.64011 6.85271 6.50777 6.83231
threshold=0.81251948751354852 -0.95883829278229682 -0.38561674866594814 1.0000000180025095e-35 4.5000000000000009 0.7346368414384491 -0.47696817890780902 1.0000000180025095e-35 -0.37247344337995225 0.36048261837297851 -0.39859488545091865 -0.43070573935187667 1.5332123171776677 0.24999483329994573 1.8996903480541332 4.5000000000000009 0.53997861502916733 0.088447497253777999 3.5000000000000004 2.4712707039347523 3.5617152222463848 1.0000000180025095e-35 1.5000000000000002 1.0000000180025095e-35 1.0934386801259095 -0.47696817890780902 0.72696064924944392 -0.12625470580341835 -0.34373884337011534
decision_type=2 2 2 2 2 2 2 2 2 2 2 2 2 2 2 2 2 2 2 2 2 2 2 2 2 2 2 2 2
left_child=1 13 10 6 5 7 -4 -5 -9 16 11 -3 -11 -1 -13 22 17 -8 19 -19 -21 -10 -6 -15 -24 -23 -27 28 -7
right_child=-2 2 3 4 15 27 9 8 21 12 -12 14 -14 23 -16 -17 -18 18 -20 20 -22 25 24 -25 -26 26 -28 -29 -30
leaf_value=-0.088712673477988821 0.10795399935417671 0.068525208426826051 -0.033486728802174105 -0.060417030749833414 -0.034113958338404374 -0.12334248738338034 -0.010419614876059516 -0.061650205647827118 -0.068244125457079363 0.023565023034822927 0.10103268724056716 -0.11463686772202893 -0.008508513470574245 0.020647715655148297 0.11854217018453202 0.067557590799436504 0.12406656420590217 0.014377484600204464 -0.017418984416954057 0.17039226176146305 -0.020870895127052706 -0.055471357322677856 0.029979093651887046 -0.065399778138746659 -0.027236254651812727 -0.0075303941624570332 0.038626806421367565 -0.068604409893494978 0.010038570319585277
leaf_weight=208.70992908626795 156.0064180418849 35.265428461134434 122.29521457105875 318.82260171696544 30.617481164634228 3.9110260903835288 511.52480673417449 82.363488264381886 21.629484478384256 739.23003961145878 59.377239275723696 10.563723109662531 151.39753134548664 15.73844104260206 2.3536161854863158 42.143920712172985 6.4308031722903243 357.93586797267199 113.35509637743235 8.3433762937784177 4.6681265234947196 19.742928992956877 147.26928912103176 28.906816642731428 24.040881916880608 108.78068152442575 45.668556656688452 11.807799391448496 212.73790936544538
leaf_count=5062 1259 172 804 5073 153 30 2709 1437 276 3433 480 106 768 121 14 184 45 1664 527 40 22 261 674 580 114 1193 462 77 1564
internal_value=0 -0.00585006 -2.39342e-05 -0.0024508 -0.0182887 -0.0304354 0.005955 -0.0434943 -0.0240995 0.00850324 0.0695763 0.0308115 0.0181129 -0.0792593 -0.0721503 0.022792 -3.60569e-05 -0.000837481 0.00928326 0.017443 0.101773 -0.00830543 0.013449 -0.0350661 0.0219498 -0.000862829 0.00611767 0.00369051 0.00763073
internal_weight=0 3445.63 3192.28 3084.72 1069.54 825.464 2015.18 597.008 278.185 1892.89 107.56 48.1828 890.628 253.355 12.9173 244.072 1002.26 995.827 484.302 370.947 13.0115 195.822 201.928 44.6453 171.31 174.192 154.449 228.457 216.649
internal_count=29304 28045 22282 21510 11498 10373 10012 8702 3629 9208 772 292 4201 5763 120 1125 5007 4962 2253 1726 62 2192 941 701 788 1916 1655 1671 1594
is_linear=0
shrinkage=0.1


Tree=22
num_leaves=30
num_cat=0
split_feature=3 6 0 3 5 5 5 5 3 5 3 5 5 2 5 5 0 4 5 5 3 0 0 9 3 0 0 4 4
split_gain=169.439 151.679 62.4402 38.8074 28.4338 25.2295 24.6584 60.2037 20.7611 19.3188 16.6952 14.2127 16.2941 16.9199 14.5277 13.7602 19.6038 14.8934 13.1809 9.98609 9.42803 8.83113 9.06082 8.73101 9.28083 8.53002 8.43778 8.90202 8.36338
threshold=0.81251948751354852 1.5000000000000002 -0.81224708043171068 -0.38086701819309804 2.5000000000000004 7.5000000000000009 3.5000000000000004 6.5000000000000009 -0.33383799675065323 1.0000000180025095e-35 -0.39859488545091865 2.5000000000000004 3.5000000000000004 -0.073099838792389737 6.5000000000000009 5.5000000000000009 -0.44576904955524532 3.5000000000000004 1.5000000000000002 1.0000000180025095e-35 -0.42896640143224146 0.87355186160003007 1.1667342863012025 1.5000000000000002 -0.42896640143224146 0.87355186160003007 1.0000000180025095e-35 4.5000000000000009 2.5000000000000004
decision_type=2 2 2 2 2 2 2 2 2 2 2 2 2 2 2 2 2 2 2 2 2 2 2 2 2 2 2 2 2
left_child=1 3 20 10 9 8 25 15 -5 -4 -1 19 13 -13 -14 17 -17 -8 28 -10 -3 -19 -23 -9 -25 -6 27 -15 -11
right_child=-2 2 4 5 6 -7 7 23 11 18 -12 12 14 26 -16 16 -18 21 -20 -21 -22 22 -24 24 -26 -27 -28 -29 -30
leaf_value=0.0062032436895472992 0.10505774221366504 0.11890974506998285 -0.043202308367424058 -0.11253181912977815 -0.076601939251248807 -0.032096816270859717 0.074841589803339242 -0.088471955912819922 0.0024872456971468597 0.026064638992543739 0.10172398662422732 -0.047853153098557519 0.037830011894064847 -0.021249924438447591 0.0056189334488025988 -0.052692966026085378 0.19513993155728099 -0.05280305586527987 0.098208778478215325 0.028691748689023494 -0.088649092094143012 0.18507448470729926 -0.031718252185520455 0.10092728852020733 -0.042061575484524542 -0.030759793319152962 0.0075788382464328083 0.043977244379051726 -0.02041003810286926
leaf_weight=26.018154200166464 144.85297660529613 2.2114477902650824 69.650056056678295 14.084910836070774 158.79660527408123 164.87750511616468 35.933816704899073 43.208603028208017 206.09540956839919 109.71936610341072 61.66340097039938 87.131402380764484 196.28953712433577 233.10983622074127 488.42275615409017 4.2693495601415661 12.644578620791433 22.158311121165756 18.661981273442507 494.0213323906064 210.53374174796045 3.6745183058083049 4.0557714961469173 4.6667075976729384 166.1727857850492 54.528087101876736 425.43243183940649 22.986579142510891 59.839091796427965
leaf_count=159 1259 10 812 107 2475 1426 286 740 923 971 515 582 905 1400 2257 33 83 184 95 2173 6146 26 33 23 2373 791 1928 127 462
internal_value=0 -0.00537564 -0.0385509 0.00806819 -0.0252705 0.005613 -0.0389513 -0.0203111 0.00848141 0.00179239 0.0733797 0.0092729 0.0036344 -0.006359 0.014853 0.0521323 0.132583 0.0314594 0.0184425 0.0209779 -0.0864916 -0.0206972 0.0713321 -0.0483127 -0.0381556 -0.0648842 -0.0010541 -0.0153953 0.0096632
internal_weight=0 3400.86 980.725 2420.13 767.98 2332.45 510.109 296.784 2167.57 257.87 87.6816 2153.49 1453.37 768.66 684.712 82.7363 16.9139 65.8224 188.22 700.117 212.745 29.8886 7.73029 214.048 170.839 213.325 681.529 256.096 169.558
internal_count=29304 28045 15543 12502 9387 11828 7047 3781 10402 2340 674 10295 7199 4037 3162 645 116 529 1528 3096 6156 243 59 3136 2396 3266 3455 1527 1433
is_linear=0
shrinkage=0.1


Tree=23
num_leaves=30
num_cat=0
split_feature=3 2 3 8 8 8 8 8 2 5 5 7 7 7 4 4 2 2 7 3 3 7 5 5 3 8 10 7 7
split_gain=148.698 67.885 38.9728 38.5903 41.1776 30.1518 22.4184 19.9449 15.0325 14.011 12.3756 11.1803 12.8471 16.8526 10.0954 33.1795 17.03 9.46567 9.29205 8.58569 16.1923 8.00034 7.91248 11.4984 7.39615 7.32323 7.17653 7.16851 10.4026
threshold=0.81251948751354852 -0.47696817890780902 -0.38561674866594814 1.0000000180025095e-35 4.5000000000000009 1.5000000000000002 4.5000000000000009 1.0000000180025095e-35 0.7346368414384491 7.5000000000000009 2.5000000000000004 9.5000000000000018 4.5000000000000009 3.5000000000000004 3.5000000000000004 4.5000000000000009 0.088447497253777999 0.088447497253777999 9.5000000000000018 -0.39859488545091865 -0.45291574663337264 2.5000000000000004 6.5000000000000009 5.5000000000000009 -0.15849935492896369 3.5000000000000004 1.0000000180025095e-35 4.5000000000000009 3.5000000000000004
decision_type=2 2 2 2 2 2 2 2 2 2 2 2 2 2 2 2 2 2 2 2 2 2 2 2 2 2 2 2 2
left_child=1 6 19 9 5 8 7 18 11 14 25 12 13 -5 16 -16 -4 -12 -1 20 -3 -17 23 24 -10 -7 -13 28 -18
right_child=-2 2 3 4 -6 10 -8 -9 22 -11 17 26 -14 -15 15 21 27 -19 -20 -21 -22 -23 -24 -25 -26 -27 -28 -29 -30
leaf_value=-0.052133884398499558 0.10231052030234256 0.096357524967857003 0.0022456512017273371 -0.052918587654452169 0.022675949975990962 -0.052301692458522279 0.0061850140577495915 -0.084172205024495905 0.13770528811446966 -0.025653649276776297 -0.078365611666154508 -0.031192357661373651 -0.08447766674234633 0.023389567507709139 -0.035584720824253457 0.064164409654925481 0.016763375714359714 -0.03524136174187175 0.0035100666170390059 0.09101958596024462 -0.025390270490025825 0.011872103811907123 -0.030330396539139833 0.12891032351883785 0.0096611588444360363 0.0063397437024425018 0.01615326150024126 0.015281150887957874 0.055726296258115995
leaf_weight=76.227304950356483 134.40821550041437 20.236763253808022 708.95611124485731 78.821497295051813 196.971654728055 38.54474520124495 63.669180750846863 150.67329297028482 4.6878132037818423 130.13940735161304 156.05833426490426 55.046162903308868 51.019006248563528 45.734691943973303 196.7591769695282 33.288016304373741 131.85817001760006 75.534735964611173 49.498032446950674 50.690647518262267 23.738425573334098 241.61679012328386 35.855106301605701 9.4494859986007196 119.69768353551626 47.587794771417975 76.518798071891069 339.61906967684627 142.66043455153704
leaf_count=566 1259 100 3498 1506 930 634 324 3796 30 1112 3746 722 1148 508 915 149 597 920 297 471 180 1101 352 50 883 508 790 1567 645
internal_value=0 -0.00495965 -0.000176544 -0.00222624 -0.0182537 -0.0284003 -0.0473111 -0.0596341 -0.0124987 0.00602962 -0.0522646 -0.0256963 -0.042212 -0.0248997 0.008327 -0.0042344 0.012805 -0.0643005 -0.0302269 0.0629697 0.0306364 0.0182041 0.0113889 0.0225658 0.0144869 -0.0199026 -0.00365592 0.0249946 0.0370114
internal_weight=0 3351.16 3011.09 2916.42 991.528 794.556 340.068 276.399 476.83 1924.9 317.726 307.14 175.575 124.556 1794.76 471.664 1323.09 231.593 125.725 94.6658 43.9752 274.905 169.69 133.835 124.385 86.1325 131.565 614.138 274.519
internal_count=29304 28045 23062 22311 12727 11797 4983 4659 5989 9584 5808 4674 3162 2014 8472 2165 6307 4666 863 751 280 1250 1315 963 913 1142 1512 2809 1242
is_linear=0
shrinkage=0.1


Tree=24
num_leaves=30
num_cat=0
split_feature=0 6 10 0 8 2 2 4 4 0 0 0 0 9 1 1 2 2 4 6 8 0 1 2 1 1 4 0 2
split_gain=117.814 56.1345 29.5344 22.3632 16.8198 14.0303 12.9649 13.5572 11.7328 9.07579 8.89843 8.77719 11.6285 8.6165 6.87792 9.80571 6.66705 6.55143 6.29388 6.27736 5.78981 6.21682 5.68676 5.67251 5.62867 5.56866 8.5543 9.31027 5.03587
threshold=-1.0321338989575897 1.5000000000000002 1.0000000180025095e-35 1.0000000180025095e-35 1.5000000000000002 0.7346368414384491 0.088447497253777999 3.5000000000000004 4.5000000000000009 -0.51906465573053839 0.21389140602239234 2.0462815604047195 -0.079291018678779981 1.5000000000000002 -1.5129785263016893 -1.0277301320201848 -0.39619451088472518 0.41154216934611348 3.5000000000000004 2.5000000000000004 1.0000000180025095e-35 -0.7389514742564175 -1.4543833843668554 -0.23464717483855746 0.34889697694711869 1.2109592403233276 2.5000000000000004 0.14059579984709925 -0.71928918297706057
decision_type=2 2 2 2 2 2 2 2 2 2 2 2 2 2 2 2 2 2 2 2 2 2 2 2 2 2 2 2 2
left_child=17 6 5 4 23 10 11 9 -9 20 -3 12 14 -5 -2 -16 18 -1 -15 -19 -8 -22 -7 -4 -20 -11 27 -27 -17
right_child=1 2 3 13 -6 22 7 8 -10 25 -12 -13 -14 16 15 28 -18 19 24 -21 21 -23 -24 -25 -26 26 -28 -29 -30
leaf_value=-0.089085615531932366 0.10112256214133111 -0.067244289097895635 -0.082000008663461854 -0.032169148661500592 -0.067928835039609725 -0.12353601267959652 -0.0073771009546075884 -0.017139794329663855 0.027064853769656533 0.028515780030140894 -0.032765885297976402 -0.031534509904362809 0.013041734825797652 -0.066152796830276611 -0.049548781426928909 -0.037031528501120681 0.033992472916854005 0.033429918787633538 0.00024044803624745896 -0.074625261524204289 0.13951436667433645 -0.010789868574193354 0.0016710383082111013 -0.00097509470112679044 0.21384139070641195 0.0016258113956518297 0.16390542774449679 0.088247581434351546 0.0010905482450567978
leaf_weight=149.2956363838166 5.8658157289028159 145.65670274943113 9.2269442267715913 27.226204231381416 63.205987734720111 3.7937918417155734 98.608344279229641 154.99811874330044 98.011762924492359 564.94290746003389 153.99412143975496 62.636022035032511 944.77871563658118 13.439549475908281 50.112657975405455 38.365775220096111 177.99654675647616 9.0142164416611195 5.015310436487197 13.32187058404088 5.8623800724744797 5.186403349041937 82.757947262376547 135.94478322379291 1.6361268833279607 23.857537262141705 7.1157254800200453 25.855465292930603 357.9217732809484
leaf_count=4603 34 2893 200 320 1204 28 529 795 493 2891 2466 416 4950 201 295 232 1515 99 59 333 31 25 650 1655 19 117 42 148 2061
internal_value=0 0.00347318 -0.0191692 -0.00125888 -0.0248716 -0.0392818 0.0110687 0.0199373 -1.56589e-05 0.0268393 -0.0495254 0.00508748 0.00672941 0.0205789 -0.00645697 -0.00787059 0.0278289 -0.0815286 -0.0267775 -0.0310172 0.000314452 0.0689601 -0.00381712 -0.00612494 0.0527822 0.0315173 0.0613559 0.0466773 -0.00260016
internal_weight=0 3264.01 819.894 433.691 208.378 386.203 2444.12 984.439 253.01 731.429 299.651 1459.68 1397.04 225.314 452.266 446.4 198.088 171.632 20.091 22.3361 109.657 11.0488 86.5517 145.172 6.65144 621.772 56.8287 49.713 396.288
internal_count=29304 24269 11210 5173 3059 6037 13059 5071 1288 3783 5359 7988 7572 2114 2622 2588 1794 5035 279 432 585 56 678 1855 78 3198 307 265 2293
is_linear=0
shrinkage=0.1


Tree=25
num_leaves=30
num_cat=0
split_feature=3 6 2 3 3 3 5 5 3 9 3 3 3 3 3 3 7 7 5 1 7 7 7 4 1 3 7 2 7
split_gain=129.584 91.862 39.8487 29.9851 23.369 20.5538 20.4782 17.6826 13.3858 12.377 10.9924 18.8832 26.4986 22.2057 18.8018 29.8663 10.9198 13.3763 9.69875 9.59268 10.2988 44.3069 26.1326 10.2271 8.99216 8.26627 8.08438 10.739 7.48123
threshold=0.81251948751354852 1.5000000000000002 0.24999483329994573 -0.36675162199913525 -0.45893653173980226 -0.33383799675065323 2.5000000000000004 7.5000000000000009 -0.43070573935187667 1.5000000000000002 0.53997861502916733 0.2835600671075586 0.2654977117882697 0.021589017365575901 0.43387900193141837 0.4631132585037489 9.5000000000000018 11.500000000000002 1.5000000000000002 -0.95654652194130374 9.5000000000000018 4.5000000000000009 3.5000000000000004 3.5000000000000004 1.6416953666649743 -0.4502398421416261 10.500000000000002 2.1885628658539589 11.500000000000002
decision_type=2 2 2 2 2 2 2 2 2 2 2 2 2 2 2 2 2 2 2 2 2 2 2 2 2 2 2 2 2
left_child=1 3 6 4 -1 -5 8 9 -3 -7 11 12 13 19 -13 -16 -8 -18 -10 -11 21 22 -21 -24 26 -4 27 -22 -9
right_child=-2 2 25 5 -6 7 16 28 18 10 -12 14 -14 -15 15 -17 17 -19 -20 20 24 -23 23 -25 -26 -27 -28 -29 -30
leaf_value=-0.24687920648540193 0.099690374279957764 0.15795296402189851 0.12591007976104215 -0.12124053319098785 0.075183376297164664 -0.015989461176360128 -0.071552673629533867 -0.038858426571921484 -0.028692102687414674 -0.0071956877239002688 0.097713035324180603 -0.1268067607695334 0.13720103494054622 -0.12713925407840396 0.10712953519111237 -0.12891911428979649 0.0038698927247497843 -0.064273538137632244 0.084426123583142276 0.0029422552367408764 0.038528283621841873 -0.034017825075635021 0.052320326538215847 0.0064216559217886411 0.073967727767378449 -0.0070514302962234841 0.010855880964368212 -0.093356873591050479 0.015298821257540902
leaf_weight=2.3202222883701316 123.8177087828517 4.2216115593910208 4.7412555068731299 13.112014375627039 77.752456672489643 216.07150642201304 276.92954160273075 126.38204580172896 141.12326125614345 279.45595623552799 13.945481434464453 20.319552391767502 16.260701075196266 11.906626295298336 12.599927067756653 9.328734464943409 50.244338348507881 67.513791337609291 8.0098809860646707 442.54796817153692 221.06057777255774 211.26599178090692 216.37666990607977 62.587911538779736 32.596861802041531 338.79167801700532 367.515370875597 6.3514839559793463 31.956689886748791
leaf_count=10 1259 19 25 114 669 1068 7614 1156 2459 1331 97 140 79 89 56 61 715 1603 49 2124 990 1164 966 280 149 3059 1672 29 258
internal_value=0 -0.00452269 -0.0319188 0.00568994 0.0658511 0.00360603 -0.0486569 0.00431822 -0.0176458 0.00670391 0.00925229 0.00860647 0.0101018 0.00898562 -0.057505 0.00671141 -0.0607061 -0.0351985 -0.0226166 0.0098666 0.0129225 0.00625882 0.0180522 0.0420226 0.0228277 -0.00521637 0.0200257 0.0348448 -0.0279281
internal_weight=0 3283.29 891.575 2391.71 80.0727 2311.64 548.042 2298.53 153.355 2140.19 1924.12 1910.17 1867.93 1851.67 42.2482 21.9287 394.688 117.758 149.133 1839.76 1560.3 932.779 721.513 278.965 627.524 343.533 594.927 227.412 158.339
internal_count=29304 28045 15543 12502 679 11823 12459 11709 2527 10295 9227 9130 8873 8794 257 117 9932 2318 2508 8705 7374 4534 3370 1246 2840 3084 2691 1019 1414
is_linear=0
shrinkage=0.1


Tree=26
num_leaves=30
num_cat=0
split_feature=3 0 6 3 10 0 3 3 3 3 3 3 3 3 8 2 7 7 7 7 4 4 3 8 0 4 2 2 3
split_gain=113.772 92.7783 39.9925 26.5562 23.2107 19.6503 18.2171 15.1181 14.0869 17.2379 30.0094 24.7821 20.4424 30.6926 12.6504 11.1454 10.6801 60.9205 27.6102 15.6689 11.1449 10.5729 8.46444 8.20041 8.02652 10.5276 8.30584 7.73526 7.59719
threshold=0.81251948751354852 -1.0321338989575897 1.5000000000000002 -0.36675162199913525 1.0000000180025095e-35 1.0000000180025095e-35 -0.33383799675065323 -0.39859488545091865 0.53997861502916733 0.2835600671075586 0.2654977117882697 0.021589017365575901 0.43387900193141837 0.4631132585037489 1.5000000000000002 0.7346368414384491 9.5000000000000018 4.5000000000000009 3.5000000000000004 13.500000000000002 3.5000000000000004 4.5000000000000009 -0.41545308374892159 1.0000000180025095e-35 0.36048261837297851 4.5000000000000009 -0.073099838792389737 1.0000000180025095e-35 -0.45291574663337264
decision_type=2 2 2 2 2 2 2 2 2 2 2 2 2 2 2 2 2 2 2 2 2 2 2 2 2 2 2 2 2
left_child=1 -1 3 7 15 14 -5 28 9 10 11 16 -11 -14 -6 -4 17 18 23 -18 -20 -22 -7 24 26 27 -8 -26 -3
right_child=-2 2 4 6 5 22 8 -9 -10 12 -12 -13 13 -15 -16 -17 19 -19 20 -21 21 -23 -24 -25 25 -27 -28 -29 -30
leaf_value=-0.080875127010061929 0.097130226575143905 0.062420057022096569 -0.049200526194653274 -0.11920805900693865 -0.010549026029509571 0.12956541083722511 -0.086050735636879233 0.09553580548275753 0.10069667983869329 -0.12300287784390856 0.13665382642056342 -0.12291933968910392 0.10277057631006087 -0.12624966055622974 -0.066793974062498179 -0.0072319583921777002 0.02026736034249324 -0.037005300095145875 0.044641691318426005 -0.016181790276464051 -0.029717980995022503 0.03758000729315069 0.01338638658638258 0.027751068639616239 -0.012272193986508636 0.057646184647124711 -0.01298765466801691 0.028304686053623941 -0.048701985534973014
leaf_weight=150.30585779249668 114.83774189278483 11.038485139608385 267.61984623223543 11.920682758092878 134.22660326771438 6.4692066088318816 16.5993662327528 50.857054859399796 15.195501573383806 23.07287510484457 17.275913462042809 15.196986086666582 14.230556629598141 9.9386247843503952 56.957530122250319 82.871653456240892 693.86304330080748 337.73656655475497 267.12863485515118 142.09276301413774 45.896770849823952 47.510205179452896 204.77266385406256 87.820322703570127 165.91730467230082 35.577109105885029 248.30100337415934 65.538025461137295 13.899879727512596
leaf_count=5016 1259 61 5293 110 1796 35 116 516 107 178 87 131 65 70 1198 646 3107 2058 1197 758 213 211 1979 419 864 155 1275 289 95
internal_value=0 -0.00415313 -0.000420599 0.00603779 -0.0204636 -0.00407784 0.00408579 0.0642617 0.00473933 0.00408655 0.00537784 0.00433232 -0.055677 0.00859502 -0.0273055 -0.0392773 0.00523012 -0.000377742 0.0122415 0.0140719 0.034245 0.00451224 0.0169443 -0.000558898 -0.00523278 0.00700195 -0.017566 -0.000782596 0.000484039
internal_weight=0 3239.83 3089.53 2336.61 752.918 402.426 2260.81 75.7954 2248.89 2233.7 2186.45 2169.18 47.2421 24.1692 191.184 350.491 2153.98 1318.03 980.289 835.956 360.536 93.407 211.242 619.753 531.933 267.032 264.9 231.455 24.9384
internal_count=29304 28045 23029 12082 10947 5008 11410 672 11300 11193 10880 10793 313 135 2994 5939 10662 6797 4739 3865 1621 424 2014 3118 2699 1308 1391 1153 156
is_linear=0
shrinkage=0.1


Tree=27
num_leaves=30
num_cat=0
split_feature=3 6 8 6 3 3 3 3 10 5 5 9 10 8 3 3 3 3 3 3 8 4 4 1 3 3 1 3 3
split_gain=99.9083 64.9529 35.8008 27.0403 22.0579 19.4175 16.0753 14.6604 13.7507 13.4254 12.8554 9.70896 8.63762 8.37422 8.25886 14.0653 19.183 17.143 14.9485 21.9785 7.92183 7.85562 17.2215 7.77665 7.20105 16.3896 6.93938 6.07278 6.01591
threshold=0.81251948751354852 1.5000000000000002 1.5000000000000002 2.5000000000000004 -0.36675162199913525 -0.45893653173980226 -0.33383799675065323 -0.4502398421416261 1.0000000180025095e-35 7.5000000000000009 7.5000000000000009 1.5000000000000002 1.0000000180025095e-35 3.5000000000000004 0.53997861502916733 0.2835600671075586 0.2654977117882697 0.021589017365575901 0.43387900193141837 0.4631132585037489 1.0000000180025095e-35 3.5000000000000004 4.5000000000000009 -0.97527582137721647 -0.39859488545091865 -0.45291574663337264 -1.5129785263016893 -0.42896640143224146 -0.099428763273659682
decision_type=2 2 2 2 2 2 2 2 2 2 2 2 2 2 2 2 2 2 2 2 2 2 2 2 2 2 2 2 2
left_child=1 4 7 8 5 -1 -6 -3 -4 12 11 -8 -9 -10 15 16 17 20 -17 -20 21 23 -23 -13 25 -7 -24 -5 -14
right_child=-2 2 3 27 6 24 10 9 13 -11 -12 14 28 -15 -16 18 -18 -19 19 -21 -22 22 26 -25 -26 -27 -28 -29 -30
leaf_value=-0.22395272533923111 0.09462768483922307 0.14038841794333423 -0.045153718051657916 0.090316147103963754 -0.11704364001379504 0.13011526371581769 -0.014602698290771231 -0.024963678105661968 -0.038628173769762478 -0.070508643980679117 -0.024432312848332322 -0.0099557960456548474 0.0060314965352828119 0.043448339788271131 0.089501930309369204 -0.12119628716261538 0.12188018041440854 -0.12180508179670918 0.091245959186877862 -0.12275457876099048 0.026813597481988249 -0.02787376882921222 0.1294088787569033 0.013419798754067132 0.089964336931464509 -0.045507307135381543 0.010035692624744769 -0.084624625015806088 -0.062325562518517875
leaf_weight=2.350924924015998 106.51795790344477 6.3135018199682227 114.18830049969256 2.009223297238349 11.102999759837983 8.5907867550849932 213.76321316510439 187.47320658899844 18.829762529581785 37.510661395266652 152.81450632214546 165.20047214254737 267.79471494629979 36.581036830320954 12.31525821238756 17.387760668992996 14.821554668247698 10.171764913946388 11.989909484982492 8.0022216588258726 206.67021745815873 191.5574918165803 4.9757673740386954 1027.5932111255825 48.25871104747057 13.930669408291577 228.56578835844994 159.90272738412023 13.524848189204929
leaf_count=10 1259 32 2168 10 114 52 1068 3109 305 802 1414 796 3214 420 97 140 79 89 56 61 986 924 22 4934 520 97 1043 5351 132
internal_value=0 -0.00382159 -0.0276149 -0.0532237 0.00472482 0.0587836 0.00298854 -0.0110536 -0.0253185 -0.012942 0.00357672 0.00560235 -0.0083358 0.015557 0.00787646 0.00734372 0.0085711 0.00765576 -0.0533873 0.00558827 0.00837749 0.00602246 -0.00564975 0.0101823 0.0681746 0.0214837 0.012579 -0.0824537 0.00274513
internal_weight=0 3194.19 844.128 331.511 2350.06 73.1311 2276.93 512.617 169.599 506.303 2265.83 2113.01 468.793 55.4108 1899.25 1886.94 1849.56 1834.73 37.3799 19.9921 1824.56 1617.89 425.099 1192.79 70.7802 22.5215 233.542 161.912 281.32
internal_count=29304 28045 15543 8254 12502 679 11823 7289 2893 7257 11709 10295 6455 725 9227 9130 8873 8794 257 117 8705 7719 1989 5730 669 149 1065 5361 3346
is_linear=0
shrinkage=0.1


Tree=28
num_leaves=30
num_cat=0
split_feature=3 6 5 3 5 3 2 3 2 5 5 5 1 5 6 5 4 3 6 5 4 10 3 3 1 1 2 2 1
split_gain=87.6987 54.9095 22.8482 22.5358 20.461 17.219 15.8399 14.0059 12.1328 8.94469 14.5375 17.471 11.7964 10.7623 10.4449 8.31349 7.9913 7.98526 7.84236 7.29117 7.41121 7.26806 7.35991 6.2557 6.17918 9.45228 5.98081 9.51409 5.88726
threshold=0.81251948751354852 2.5000000000000004 7.5000000000000009 -0.36675162199913525 2.5000000000000004 -0.34373884337011534 -0.47696817890780902 -0.3276165188073426 1.0000000180025095e-35 2.5000000000000004 3.5000000000000004 6.5000000000000009 1.516344054890898 1.0000000180025095e-35 1.5000000000000002 1.5000000000000002 1.5000000000000002 0.43387900193141837 1.5000000000000002 1.5000000000000002 2.5000000000000004 1.0000000180025095e-35 -0.3276165188073426 0.4999069452652633 -0.66425994475645977 -0.53895583383781664 2.5924312059693784 3.804036226315636 -0.02308824463676433
decision_type=2 2 2 2 2 2 2 2 2 2 2 2 2 2 2 2 2 2 2 2 2 2 2 2 2 2 2 2 2
left_child=1 2 3 -1 15 -5 18 -8 -6 13 14 16 -13 24 26 21 -12 28 -7 20 -15 22 -3 -20 -9 -26 -11 -28 -4
right_child=-2 4 17 5 8 6 7 9 -10 10 11 12 -14 19 -16 -17 -18 -19 23 -21 -22 -23 -24 -25 25 -27 27 -29 -30
leaf_value=0.056451209853920437 0.092161218322698427 0.11868709844808832 -0.017356348783348099 -0.1151766257220953 -0.069968343924831075 -0.014340809545627784 0.11347784635803644 -0.030482081728544188 -0.024757826460605935 -0.0058272288155677915 -0.090986063041455983 -0.003310131705266236 0.054874512580386815 0.027295878193216994 -0.039197215458542316 0.07209813291658726 0.03866500683117774 0.12353484732329523 -0.071201186977273928 0.062705413930300199 0.00080343809834942579 0.0043828708735139752 -0.05006502357814413 0.19292823337267617 0.11209984700055264 0.00049345173710322481 0.11740374571687109 -0.057546001632541213 -0.052417803159719258
leaf_weight=79.745702978223562 98.83001697063446 2.712211860343813 100.91031398624182 12.384524473920463 171.84649849496782 162.7516860589385 11.932448755949734 64.96954151801765 90.680688278749585 686.7932415548712 4.8703775517642489 474.70761897973716 37.604475954547524 313.54399869218469 99.040658321231604 11.908054590225218 199.06507954746485 3.272613111883401 37.05446788109839 40.258894525468349 159.21637074835598 80.725087521597743 54.880291860550642 0.91892722249030967 8.0028959643095714 146.56800914742053 9.4692520424723607 4.627458192408084 91.149558659642935
leaf_count=756 1259 32 1173 143 6052 997 57 373 1196 3552 24 2902 225 1567 1781 62 1038 21 835 191 792 1116 1054 6 44 850 46 24 1136
internal_value=0 -0.00350007 0.00160661 0.00412816 -0.0375096 0.00244145 0.00303325 0.00542364 -0.054352 0.00485027 0.000466379 0.0108146 0.000960708 0.0139236 -0.00879925 -0.00807667 0.0355687 -0.0313569 -0.0238885 0.0218526 0.0183737 -0.0149791 -0.042118 -0.0648095 -0.00460489 0.00627186 -0.0045038 0.0599738 -0.0339961
internal_weight=0 3161.61 2748.86 2553.53 412.753 2473.78 2461.4 2260.67 262.527 2248.74 1516.18 716.248 512.312 732.56 799.931 150.226 203.935 195.332 200.725 513.019 472.76 138.318 57.5925 37.9734 219.54 154.571 700.89 14.0967 192.06
internal_count=29304 28045 18533 16203 9512 15447 15304 13466 7248 13409 9592 4189 3127 3817 5403 2264 1062 2330 1838 2550 2359 2202 1086 841 1267 894 3622 70 2309
is_linear=0
shrinkage=0.1


Tree=29
num_leaves=30
num_cat=0
split_feature=3 6 2 5 3 3 7 2 7 7 3 7 9 1 7 7 7 7 1 1 1 6 3 1 1 7 1 7 7
split_gain=76.9531 46.331 20.1445 18.9696 18.7351 15.2996 13.386 13.0375 12.1005 17.3655 11.1481 9.13278 9.08165 9.0997 10.4562 24.6904 15.2622 9.03585 10.1803 9.00077 7.67866 7.07496 6.52002 6.47232 6.4287 6.26087 10.2353 6.26031 6.21841
threshold=0.81251948751354852 2.5000000000000004 -0.31542084286164129 7.5000000000000009 -0.36675162199913525 -0.34373884337011534 9.5000000000000018 -0.47696817890780902 4.5000000000000009 3.5000000000000004 -0.3276165188073426 12.500000000000002 1.5000000000000002 -0.69427024864091869 9.5000000000000018 4.5000000000000009 3.5000000000000004 4.5000000000000009 -1.5129785263016893 0.41848047802681271 1.5944237099485765 1.5000000000000002 0.43387900193141837 -0.23880087405225031 -0.21237783518071815 3.5000000000000004 -1.049230121670029 5.5000000000000009 7.5000000000000009
decision_type=2 2 2 2 2 2 2 2 2 2 2 2 2 2 2 2 2 2 2 2 2 2 2 2 2 2 2 2 2
left_child=1 3 -3 4 -1 -6 8 21 9 -4 -9 -8 -12 17 15 16 -15 18 -14 27 23 -7 -5 -16 -25 -20 -27 -17 -29
right_child=-2 2 6 22 5 7 11 10 -10 -11 12 -13 13 14 20 19 -18 -19 25 -21 -22 -23 -24 24 -26 26 -28 28 -30
leaf_value=0.051955882916260569 0.089712532005179202 -0.080513082880040082 -0.055904746946626796 -0.031439509106226664 -0.11363558663444298 -0.012996411909018119 0.0095066840596145525 0.10061241039178036 -0.081207017946034465 0.021868594549579901 -0.014075722022225279 -0.058087600543419909 0.092913289850258929 0.00039725059057239972 0.03582598020750212 -0.060314478844855503 0.0308915218051403 -0.016447730196447564 -0.0095526922196364338 -0.061765983952861751 0.063215979638736527 -0.062129186614276147 0.11057782482882027 -0.07544689993116635 0.013147581368133699 -0.011899369174056686 0.054479697053716948 0.010704912501708986 -0.039878909659274653
leaf_weight=78.072276566177607 91.742248605936766 78.283262956887484 71.495758254081011 187.24234806001186 11.35015390999615 161.68729026243091 121.99499478563666 12.102341834455727 55.428713548928499 47.973367087543011 238.34749568067491 23.905494196340442 13.881324760615824 408.48387423157692 146.62550148926675 24.287175461649895 274.36771769449115 292.0979071315378 129.92379507608712 55.431768249720335 39.908713022246957 35.796138558536768 3.2894996479153624 8.3616207372397167 400.19346210546792 42.527641400694847 51.190603593364358 81.008937019854784 34.718362845480442
leaf_count=756 1259 3253 1958 2309 143 997 1559 57 1674 594 1697 474 89 2611 777 140 1439 1653 832 424 210 841 21 45 2115 217 270 581 309
